{"learner":{"attributes":{"scikit_learn":"{\"_estimator_type\": \"classifier\"}"},"feature_names":["TDS","optical_absorbance","pH","phytochem_1","phytochem_10","phytochem_11","phytochem_12","phytochem_13","phytochem_14","phytochem_15","phytochem_2","phytochem_3","phytochem_4","phytochem_5","phytochem_6","phytochem_7","phytochem_8","phytochem_9","sensor_1","sensor_2","sensor_3","sensor_4","sensor_5","sensor_6","sensor_7","temperature"],"feature_types":["float","float","float","float","float","float","float","float","float","float","float","float","float","float","float","float","float","float","float","float","float","float","float","float","float","float"],"gradient_booster":{"model":{"gbtree_model_param":{"num_parallel_tree":"1","num_trees":"1000"},"iteration_indptr":[0,10,20,30,40,50,60,70,80,90,100,110,120,130,140,150,160,170,180,190,200,210,220,230,240,250,260,270,280,290,300,310,320,330,340,350,360,370,380,390,400,410,420,430,440,450,460,470,480,490,500,510,520,530,540,550,560,570,580,590,600,610,620,630,640,650,660,670,680,690,700,710,720,730,740,750,760,770,780,790,800,810,820,830,840,850,860,870,880,890,900,910,920,930,940,950,960,970,980,990,1000],"tree_info":[0,1,2,3,4,5,6,7,8,9,0,1,2,3,4,5,6,7,8,9,0,1,2,3,4,5,6,7,8,9,0,1,2,3,4,5,6,7,8,9,0,1,2,3,4,5,6,7,8,9,0,1,2,3,4,5,6,7,8,9,0,1,2,3,4,5,6,7,8,9,0,1,2,3,4,5,6,7,8,9,0,1,2,3,4,5,6,7,8,9,0,1,2,3,4,5,6,7,8,9,0,1,2,3,4,5,6,7,8,9,0,1,2,3,4,5,6,7,8,9,0,1,2,3,4,5,6,7,8,9,0,1,2,3,4,5,6,7,8,9,0,1,2,3,4,5,6,7,8,9,0,1,2,3,4,5,6,7,8,9,0,1,2,3,4,5,6,7,8,9,0,1,2,3,4,5,6,7,8,9,0,1,2,3,4,5,6,7,8,9,0,1,2,3,4,5,6,7,8,9,0,1,2,3,4,5,6,7,8,9,0,1,2,3,4,5,6,7,8,9,0,1,2,3,4,5,6,7,8,9,0,1,2,3,4,5,6,7,8,9,0,1,2,3,4,5,6,7,8,9,0,1,2,3,4,5,6,7,8,9,0,1,2,3,4,5,6,7,8,9,0,1,2,3,4,5,6,7,8,9,0,1,2,3,4,5,6,7,8,9,0,1,2,3,4,5,6,7,8,9,0,1,2,3,4,5,6,7,8,9,0,1,2,3,4,5,6,7,8,9,0,1,2,3,4,5,6,7,8,9,0,1,2,3,4,5,6,7,8,9,0,1,2,3,4,5,6,7,8,9,0,1,2,3,4,5,6,7,8,9,0,1,2,3,4,5,6,7,8,9,0,1,2,3,4,5,6,7,8,9,0,1,2,3,4,5,6,7,8,9,0,1,2,3,4,5,6,7,8,9,0,1,2,3,4,5,6,7,8,9,0,1,2,3,4,5,6,7,8,9,0,1,2,3,4,5,6,7,8,9,0,1,2,3,4,5,6,7,8,9,0,1,2,3,4,5,6,7,8,9,0,1,2,3,4,5,6,7,8,9,0,1,2,3,4,5,6,7,8,9,0,1,2,3,4,5,6,7,8,9,0,1,2,3,4,5,6,7,8,9,0,1,2,3,4,5,6,7,8,9,0,1,2,3,4,5,6,7,8,9,0,1,2,3,4,5,6,7,8,9,0,1,2,3,4,5,6,7,8,9,0,1,2,3,4,5,6,7,8,9,0,1,2,3,4,5,6,7,8,9,0,1,2,3,4,5,6,7,8,9,0,1,2,3,4,5,6,7,8,9,0,1,2,3,4,5,6,7,8,9,0,1,2,3,4,5,6,7,8,9,0,1,2,3,4,5,6,7,8,9,0,1,2,3,4,5,6,7,8,9,0,1,2,3,4,5,6,7,8,9,0,1,2,3,4,5,6,7,8,9,0,1,2,3,4,5,6,7,8,9,0,1,2,3,4,5,6,7,8,9,0,1,2,3,4,5,6,7,8,9,0,1,2,3,4,5,6,7,8,9,0,1,2,3,4,5,6,7,8,9,0,1,2,3,4,5,6,7,8,9,0,1,2,3,4,5,6,7,8,9,0,1,2,3,4,5,6,7,8,9,0,1,2,3,4,5,6,7,8,9,0,1,2,3,4,5,6,7,8,9,0,1,2,3,4,5,6,7,8,9,0,1,2,3,4,5,6,7,8,9,0,1,2,3,4,5,6,7,8,9,0,1,2,3,4,5,6,7,8,9,0,1,2,3,4,5,6,7,8,9,0,1,2,3,4,5,6,7,8,9,0,1,2,3,4,5,6,7,8,9,0,1,2,3,4,5,6,7,8,9,0,1,2,3,4,5,6,7,8,9,0,1,2,3,4,5,6,7,8,9,0,1,2,3,4,5,6,7,8,9,0,1,2,3,4,5,6,7,8,9,0,1,2,3,4,5,6,7,8,9,0,1,2,3,4,5,6,7,8,9,0,1,2,3,4,5,6,7,8,9,0,1,2,3,4,5,6,7,8,9,0,1,2,3,4,5,6,7,8,9,0,1,2,3,4,5,6,7,8,9,0,1,2,3,4,5,6,7,8,9,0,1,2,3,4,5,6,7,8,9,0,1,2,3,4,5,6,7,8,9,0,1,2,3,4,5,6,7,8,9,0,1,2,3,4,5,6,7,8,9,0,1,2,3,4,5,6,7,8,9,0,1,2,3,4,5,6,7,8,9,0,1,2,3,4,5,6,7,8,9,0,1,2,3,4,5,6,7,8,9],"trees":[{"base_weights":[-1.3090065E-2,3.8220842E0,-4.8582783E-1,4.560811E0,-1.6259769E-1,8.0735976E-1,-5.455147E-1,3.665786E0,1.4851944E0,3.5799503E-2,1.3919568E0,-1.9544782E-1,-5.5197024E-1,4.2262344E0,2.145406E0,1.0586319E0,-1.6358596E-1,-4.1237116E-1,9.2748094E-1,-4.6113473E-1,-1.6658452E-1,1.3382226E0,2.5336323E0,2.922078E0,3.8653365E-1,7.584472E-1,8.814434E-1,2.2184299E-1,-5.0972307E-1,-4.97449E-1,2.4045803E-1,-9.292036E-2,9.125327E-1,1.0207669E0,1.85567E-1,3.9162564E-1,-1.3306452E-1,3.9548695E-1,-2.7545916E-2,2.658228E-1,-1.2162163E-1,5.7692308E-2,-1.6159466E-1,4.0540535E-2,-1.5653898E-1],"categories":[],"categories_nodes":[],"categories_segments":[],"categories_sizes":[],"default_left":[0,0,0,0,0,0,0,0,0,0,0,0,0,0,0,0,0,0,0,0,0,0,0,0,0,0,0,0,0,0,0,0,0,0,0,0,0,0,0,0,0,0,0,0,0],"id":0,"left_children":[1,3,5,7,-1,9,11,13,-1,15,-1,17,19,21,23,25,-1,27,-1,29,-1,-1,31,33,35,37,-1,39,41,43,-1,-1,-1,-1,-1,-1,-1,-1,-1,-1,-1,-1,-1,-1,-1],"loss_changes":[4.5725093E3,8.9470703E2,1.7374219E2,6.44751E1,0E0,2.9393726E2,4.7436523E0,5.5436584E1,0E0,5.038409E1,0E0,3.0095882E1,3.7780762E-1,1.0243469E1,2.9497734E1,1.5092541E1,0E0,2.5086675E0,0E0,4.0678444E0,0E0,0E0,1.3830093E1,1.4939926E1,6.6962714E0,1.33638E1,0E0,2.800725E0,7.92799E-1,1.2780228E0,0E0,0E0,0E0,0E0,0E0,0E0,0E0,0E0,0E0,0E0,0E0,0E0,0E0,0E0,0E0],"parents":[2147483647,0,0,1,1,2,2,3,3,5,5,6,6,7,7,9,9,11,11,12,12,13,13,14,14,15,15,17,17,19,19,22,22,23,23,24,24,25,25,27,27,28,28,29,29],"right_children":[2,4,6,8,-1,10,12,14,-1,16,-1,18,20,22,24,26,-1,28,-1,30,-1,-1,32,34,36,38,-1,40,42,44,-1,-1,-1,-1,-1,-1,-1,-1,-1,-1,-1,-1,-1,-1,-1],"split_conditions":[3.1220926E2,5.2442482E1,3.1996796E2,4.001713E1,-1.6259769E-1,6.6838745E1,3.2338358E2,3.059636E2,1.4851944E0,4.2691723E1,1.3919568E0,6.486354E1,3.3011862E2,1.311624E0,9.640099E-1,3.82819E1,-1.6358596E-1,-1.350706E0,9.2748094E-1,6.109877E1,-1.6658452E-1,1.3382226E0,-1.7822734E-1,2.7762829E1,8.7304723E-1,2.1316708E1,8.814434E-1,3.2149374E2,-1.4928223E0,-2.236523E0,2.4045803E-1,-9.292036E-2,9.125327E-1,1.0207669E0,1.85567E-1,3.9162564E-1,-1.3306452E-1,3.9548695E-1,-2.7545916E-2,2.658228E-1,-1.2162163E-1,5.7692308E-2,-1.6159466E-1,4.0540535E-2,-1.5653898E-1],"split_indices":[0,18,0,19,0,19,0,0,0,18,0,19,0,4,16,19,0,24,0,19,0,0,5,18,11,18,0,0,9,20,0,0,0,0,0,0,0,0,0,0,0,0,0,0,0],"split_type":[0,0,0,0,0,0,0,0,0,0,0,0,0,0,0,0,0,0,0,0,0,0,0,0,0,0,0,0,0,0,0,0,0,0,0,0,0,0,0,0,0,0,0,0,0],"sum_hessian":[2.52E3,2.7575998E2,2.24424E3,2.3579999E2,3.996E1,9.846E1,2.14578E3,7.47E1,1.6109999E2,8.2799995E1,1.5659999E1,3.942E1,2.1063599E3,5.328E1,2.1419998E1,2.9699999E1,5.31E1,3.78E1,1.6199999E0,7.902E1,2.02734E3,4.5359997E1,7.9199996E0,1.44E1,7.0199995E0,2.682E1,2.8799999E0,4.8599997E0,3.294E1,7.7399994E1,1.6199999E0,1.26E0,6.66E0,1.15199995E1,2.8799999E0,3.06E0,3.9599998E0,1.5839999E1,1.098E1,2.1599998E0,2.6999998E0,1.0799999E0,3.1859999E1,2.6999998E0,7.47E1],"tree_param":{"num_deleted":"0","num_feature":"26","num_nodes":"45","size_leaf_vector":"1"}},{"base_weights":[-1.1106725E-2,1.779661E0,-5.0222313E-1,3.587396E-1,4.946441E0,3.3632284E-1,-5.415124E-1,1.8214074E0,-4.621501E-1,1.4909964E0,3.9344263E-1,-3.3059973E-1,1.3766447E0,-2.6315793E-1,-5.51957E-1,2.1794328E-1,2.652213E0,3.6870503E-1,-5.439521E-1,5.084746E-1,-4.7293282E-1,-4.4437906E-1,1.0508983E0,1.7256638E-1,-5.5305314E-1,-3.5585913E-1,9.882583E-1,3.1778998E0,1.895844E0,4.8076905E-2,8.85246E-1,1.1450378E-2,-5.484402E-1,1.7567568E0,-5.4945074E-2,2.4045803E-1,-5.166108E-1,1.9127518E-1,-4.8651108E-1,-1.6624168E-1,-4.100228E-1,9.605912E-2,-1.3570276E-1,1.380368E-1,7.4124515E-1,3.0794704E-1,1.0173914E0,3.2404184E-1,8.6545247E-1,-1.304348E-1,2.219731E-1,-1.658896E-1,-7.587549E-2,6.984733E-1,5.7692308E-2,-1.0574414E-1,2.704918E-1,-1.5943602E-1,5.7692308E-2,1.7256638E-1,-1.5482077E-1,2.0192309E-1,-1.5655342E-1],"categories":[],"categories_nodes":[],"categories_segments":[],"categories_sizes":[],"default_left":[0,0,0,0,0,0,0,0,0,0,0,0,0,0,0,0,0,0,0,0,0,0,0,0,0,0,0,0,0,0,0,0,0,0,0,0,0,0,0,0,0,0,0,0,0,0,0,0,0,0,0,0,0,0,0,0,0,0,0,0,0,0,0],"id":1,"left_children":[1,3,5,7,9,11,13,15,17,-1,-1,19,-1,21,23,25,27,29,31,33,35,37,-1,-1,39,41,43,45,47,49,-1,-1,51,53,55,-1,57,-1,59,-1,61,-1,-1,-1,-1,-1,-1,-1,-1,-1,-1,-1,-1,-1,-1,-1,-1,-1,-1,-1,-1,-1,-1],"loss_changes":[2.2180513E3,2.4406875E3,6.538861E1,4.5201263E2,7.864746E0,2.544957E2,5.352356E0,1.7963754E2,1.6612892E1,0E0,0E0,9.560637E0,0E0,4.9536858E1,2.5689697E0,2.1241009E1,2.9370667E1,1.8270596E1,5.96344E-1,8.395544E0,4.157052E0,3.408167E0,0E0,0E0,5.5480957E-2,1.959487E0,1.4867477E1,1.9952393E1,2.8330307E1,7.2701135E0,0E0,0E0,1.5249634E-1,2.8602953E0,2.9078312E0,0E0,7.926636E-1,0E0,2.3674965E0,0E0,2.478007E0,0E0,0E0,0E0,0E0,0E0,0E0,0E0,0E0,0E0,0E0,0E0,0E0,0E0,0E0,0E0,0E0,0E0,0E0,0E0,0E0,0E0,0E0],"parents":[2147483647,0,0,1,1,2,2,3,3,4,4,5,5,6,6,7,7,8,8,11,11,13,13,14,14,15,15,16,16,17,17,18,18,19,19,20,20,21,21,24,24,25,25,26,26,27,27,28,28,29,29,32,32,33,33,34,34,36,36,38,38,40,40],"right_children":[2,4,6,8,10,12,14,16,18,-1,-1,20,-1,22,24,26,28,30,32,34,36,38,-1,-1,40,42,44,46,48,50,-1,-1,52,54,56,-1,58,-1,60,-1,62,-1,-1,-1,-1,-1,-1,-1,-1,-1,-1,-1,-1,-1,-1,-1,-1,-1,-1,-1,-1,-1,-1],"split_conditions":[3.3423428E2,4.9833294E1,3.413817E2,6.2785482E0,6.486354E1,3.833762E1,3.4684128E2,3.059636E2,1.1695584E1,1.4909964E0,3.9344263E-1,1.1786903E0,1.3766447E0,4.117822E1,3.5886705E-1,2.9934735E2,4.3027934E-1,4.517414E1,-1.7247562E0,4.8960137E-1,1.2213184E0,-1.9415623E0,1.0508983E0,1.7256638E-1,7.202511E1,-4.669915E-1,1.2904768E0,-8.727065E-1,7.13527E-1,3.059636E2,8.85246E-1,1.1450378E-2,2.5353198E0,5.1105494E0,8.0646104E-1,2.4045803E-1,2.797492E0,1.9127518E-1,-1.7535157E0,-1.6624168E-1,3.819564E2,9.605912E-2,-1.3570276E-1,1.380368E-1,7.4124515E-1,3.0794704E-1,1.0173914E0,3.2404184E-1,8.6545247E-1,-1.304348E-1,2.219731E-1,-1.658896E-1,-7.587549E-2,6.984733E-1,5.7692308E-2,-1.0574414E-1,2.704918E-1,-1.5943602E-1,5.7692308E-2,1.7256638E-1,-1.5482077E-1,2.0192309E-1,-1.5655342E-1],"split_indices":[0,18,0,21,19,18,0,0,21,0,0,21,0,18,1,0,14,18,15,1,19,20,0,0,18,6,4,11,11,0,0,0,17,2,21,0,15,0,21,0,0,0,0,0,0,0,0,0,0,0,0,0,0,0,0,0,0,0,0,0,0,0,0],"split_type":[0,0,0,0,0,0,0,0,0,0,0,0,0,0,0,0,0,0,0,0,0,0,0,0,0,0,0,0,0,0,0,0,0,0,0,0,0,0,0,0,0,0,0,0,0,0,0,0,0,0,0,0,0,0,0,0,0,0,0,0,0,0,0],"sum_hessian":[2.52E3,5.418E2,1.9782E3,3.7475998E2,1.6704E2,8.82E1,1.8899999E3,1.3428E2,2.4048E2,1.6559999E2,1.4399999E0,7.703999E1,1.116E1,6.9299995E1,1.8207E3,4.626E1,8.802E1,2.124E1,2.1923999E2,1.0799999E1,6.624E1,6.696E1,2.34E0,1.26E0,1.81944E3,2.682E1,1.9439999E1,5.0039997E1,3.798E1,1.98E1,1.4399999E0,1.6199999E0,2.1762E2,2.6999998E0,8.099999E0,1.6199999E0,6.4619995E1,1.9799999E0,6.4979996E1,1.8028799E3,1.656E1,3.06E0,2.3759998E1,1.5299999E1,4.14E0,5.04E0,4.4999996E1,2.196E1,1.6019999E1,1.1879999E1,7.9199996E0,2.1348E2,4.14E0,1.6199999E0,1.0799999E0,6.66E0,1.4399999E0,6.3539997E1,1.0799999E0,1.26E0,6.3719997E1,1.0799999E0,1.548E1],"tree_param":{"num_deleted":"0","num_feature":"26","num_nodes":"63","size_leaf_vector":"1"}},{"base_weights":[-1.824675E-2,1.0304682E0,-5.120728E-1,2.422923E0,-5.149935E-1,9.694672E-2,-5.4537296E-1,1.13931775E-1,3.4379237E0,5.5950266E-1,-5.460294E-1,5.090909E-1,-1.6200337E-1,-3.6289325E-1,-1.6636485E-1,-3.008835E-1,4.322034E0,3.6454694E0,-1.559692E-1,1.0183281E-2,7.622951E-1,-5.513738E-1,1.7256638E-1,2.4451289E-1,1.1305419E0,-4.2060858E-1,1.0227273E0,-5.1209974E-1,1.481103E-1,3.4615386E-1,1.3600748E0,2.761751E0,4.792875E0,7.013575E-1,-1.4062501E-1,-1.6621602E-1,-6.3291155E-2,1.4634147E0,1.5645934E-2,2.4647886E-1,-4.6641287E-1,6.346154E-1,-9.8360665E-2,-6.276156E-3,-1.6068684E-1,5.594027E-3,5.839695E-1,5.076113E-1,1.0541061E0,5.5063295E-1,1.4493842E0,4.6946567E-1,-1.07142866E-1,-8.6538464E-2,5.7692308E-2,-1.1073827E-1,6.3183284E-1,3.157895E-1,-3.6368143E-2,-6.52174E-2,3.4615386E-1,5.1136363E-2,-1.4742328E-1],"categories":[],"categories_nodes":[],"categories_segments":[],"categories_sizes":[],"default_left":[0,0,0,0,0,0,0,0,0,0,0,0,0,0,0,0,0,0,0,0,0,0,0,0,0,0,0,0,0,0,0,0,0,0,0,0,0,0,0,0,0,0,0,0,0,0,0,0,0,0,0,0,0,0,0,0,0,0,0,0,0,0,0],"id":2,"left_children":[1,3,5,7,9,11,13,15,17,19,21,23,-1,25,-1,27,29,31,-1,33,-1,35,-1,37,-1,39,41,43,45,-1,-1,47,49,51,-1,-1,53,55,57,59,61,-1,-1,-1,-1,-1,-1,-1,-1,-1,-1,-1,-1,-1,-1,-1,-1,-1,-1,-1,-1,-1,-1],"loss_changes":[1.3061101E3,1.7387606E3,3.4825714E1,9.954158E2,1.3094437E1,2.3833324E1,2.5213623E0,2.2958803E2,2.4431567E2,1.2230249E1,2.5537567E0,4.65084E1,0E0,6.887068E0,0E0,1.1454124E1,2.6776123E0,2.7122607E2,0E0,3.5794399E0,0E0,4.5143127E-1,0E0,1.4466613E1,0E0,2.5050106E0,5.8881683E0,9.341469E-1,9.081494E0,0E0,0E0,1.2342737E2,4.842041E0,4.5989656E0,0E0,0E0,2.3734176E-1,1.0435097E1,6.477798E0,2.6415517E0,1.25455E0,0E0,0E0,0E0,0E0,0E0,0E0,0E0,0E0,0E0,0E0,0E0,0E0,0E0,0E0,0E0,0E0,0E0,0E0,0E0,0E0,0E0,0E0],"parents":[2147483647,0,0,1,1,2,2,3,3,4,4,5,5,6,6,7,7,8,8,9,9,10,10,11,11,13,13,15,15,16,16,17,17,19,19,21,21,23,23,25,25,26,26,27,27,28,28,31,31,32,32,33,33,36,36,37,37,38,38,39,39,40,40],"right_children":[2,4,6,8,10,12,14,16,18,20,22,24,-1,26,-1,28,30,32,-1,34,-1,36,-1,38,-1,40,42,44,46,-1,-1,48,50,52,-1,-1,54,56,58,60,62,-1,-1,-1,-1,-1,-1,-1,-1,-1,-1,-1,-1,-1,-1,-1,-1,-1,-1,-1,-1,-1,-1],"split_conditions":[3.5562338E2,3.6676052E1,3.623081E2,3.240277E2,3.766862E1,3.469852E1,3.692286E2,2.424034E1,5.4461594E1,3.7297794E1,5.5804424E1,4.9010063E1,-1.6200337E-1,5.0935974E1,-1.6636485E-1,3.1397916E2,3.1397916E2,3.482145E1,-1.559692E-1,4.5163277E-1,7.622951E-1,3.0656688E0,1.7256638E-1,-3.806126E-1,1.1305419E0,-8.272608E-1,3.4229214E1,-1.0715959E0,2.1841137E0,3.4615386E-1,1.3600748E0,2.629609E-1,-1.3461401E0,8.0950147E-1,-1.4062501E-1,-1.6621602E-1,3.1927414E2,1.2268294E-1,-6.1152226E-1,1.532788E0,-1.1241827E0,6.346154E-1,-9.8360665E-2,-6.276156E-3,-1.6068684E-1,5.594027E-3,5.839695E-1,5.076113E-1,1.0541061E0,5.5063295E-1,1.4493842E0,4.6946567E-1,-1.07142866E-1,-8.6538464E-2,5.7692308E-2,-1.1073827E-1,6.3183284E-1,3.157895E-1,-3.6368143E-2,-6.52174E-2,3.4615386E-1,5.1136363E-2,-1.4742328E-1],"split_indices":[0,19,0,0,19,19,0,21,22,23,24,21,0,21,0,0,0,21,0,3,0,10,0,3,0,15,19,14,13,0,0,8,8,10,0,0,0,16,6,7,14,0,0,0,0,0,0,0,0,0,0,0,0,0,0,0,0,0,0,0,0,0,0],"split_type":[0,0,0,0,0,0,0,0,0,0,0,0,0,0,0,0,0,0,0,0,0,0,0,0,0,0,0,0,0,0,0,0,0,0,0,0,0,0,0,0,0,0,0,0,0,0,0,0,0,0,0,0,0,0,0,0,0,0,0,0,0,0,0],"sum_hessian":[2.52E3,8.0639996E2,1.7136E3,4.239E2,3.8249997E2,8.874E1,1.62486E3,1.2978E2,2.9412E2,1.0259999E1,3.7224E2,5.3999996E1,3.4739998E1,7.974E1,1.5451199E3,1.18979996E2,1.0799999E1,2.7953998E2,1.4579999E1,8.82E0,1.4399999E0,3.7097998E2,1.26E0,5.094E1,3.06E0,7.721999E1,2.52E0,8.082E1,3.816E1,1.0799999E0,9.719999E0,1.5984E2,1.197E2,3.4199998E0,5.3999996E0,3.6881998E2,2.1599998E0,7.2E0,4.3739998E1,4.68E0,7.253999E1,1.0799999E0,1.4399999E0,3.7799997E0,7.703999E1,3.6539997E1,1.6199999E0,6.732E1,9.252E1,2.1599998E0,1.1753999E2,1.6199999E0,1.8E0,1.0799999E0,1.0799999E0,1.9799999E0,5.22E0,4.3199997E0,3.942E1,3.6E0,1.0799999E0,2.52E0,7.002E1],"tree_param":{"num_deleted":"0","num_feature":"26","num_nodes":"63","size_leaf_vector":"1"}},{"base_weights":[-7.933567E-4,6.642364E-1,-5.267568E-1,-3.5913184E-1,2.3917868E0,-1.1979466E-1,-5.476731E-1,-5.208193E-1,5.1761913E-1,3.3745928E0,-4.1213354E-1,-3.2482946E-1,1.0945947E0,-3.3268103E-1,-1.6517642E-1,-5.4684514E-1,-3.1823397E-1,6.9240436E-2,3.2917213E0,2.4125485E0,4.702893E0,-5.40797E-1,9.0886706E-1,2.4053222E-1,-1.6325697E-1,3.9748952E-1,-1.5666269E-1,-2.9045644E-1,-5.505872E-1,-3.942543E-1,6.766917E-1,5.972279E-1,-4.8032165E-1,1.3450947E0,-1.304348E-1,2.6419635E0,-3.1628534E-1,4.7696953E0,9.060402E-2,-3.991383E-9,-1.6505793E-1,-1.7836596E-1,7.4050635E-1,4.9038464E-1,-1.2162163E-1,-1.4719628E-1,2.0192309E-1,-4.6391763E-2,-1.657543E-1,-1.3033025E-1,9.605912E-2,-4.054055E-2,4.6946567E-1,5.514706E-1,3.5381235E-2,-1.564819E-1,1.4754099E-1,9.0440524E-1,3.270142E-1,-1.5457185E-1,3.4615386E-1,1.4397495E0,3.9344263E-1,-1.304348E-1,1.3636364E-1],"categories":[],"categories_nodes":[],"categories_segments":[],"categories_sizes":[],"default_left":[0,0,0,0,0,0,0,0,0,0,0,0,0,0,0,0,0,0,0,0,0,0,0,0,0,0,0,0,0,0,0,0,0,0,0,0,0,0,0,0,0,0,0,0,0,0,0,0,0,0,0,0,0,0,0,0,0,0,0,0,0,0,0,0,0],"id":3,"left_children":[1,3,5,7,9,11,13,15,17,19,21,23,-1,25,-1,27,29,31,33,35,37,39,-1,41,-1,43,-1,45,47,49,51,53,55,-1,-1,57,59,61,-1,-1,-1,63,-1,-1,-1,-1,-1,-1,-1,-1,-1,-1,-1,-1,-1,-1,-1,-1,-1,-1,-1,-1,-1,-1,-1],"loss_changes":[8.821487E2,1.9698977E3,1.1921539E1,9.954385E1,1.1435222E3,5.5364246E1,6.560669E-1,2.945984E0,1.3602322E2,3.8096436E2,4.9666603E1,8.4921875E0,0E0,3.0362165E0,0E0,3.418579E-1,5.5430574E0,2.794509E1,6.955243E1,1.13584595E2,3.61604E1,5.3557587E-1,0E0,1.8675598E1,0E0,5.41057E0,0E0,2.1897774E0,3.070526E-1,2.0176601E0,4.0475073E0,2.8964233E1,2.1532526E0,0E0,0E0,9.287219E1,4.94089E0,6.5390625E0,0E0,0E0,0E0,3.0182118E0,0E0,0E0,0E0,0E0,0E0,0E0,0E0,0E0,0E0,0E0,0E0,0E0,0E0,0E0,0E0,0E0,0E0,0E0,0E0,0E0,0E0,0E0,0E0],"parents":[2147483647,0,0,1,1,2,2,3,3,4,4,5,5,6,6,7,7,8,8,9,9,10,10,11,11,13,13,15,15,16,16,17,17,18,18,19,19,20,20,21,21,23,23,25,25,27,27,28,28,29,29,30,30,31,31,32,32,35,35,36,36,37,37,41,41],"right_children":[2,4,6,8,10,12,14,16,18,20,22,24,-1,26,-1,28,30,32,34,36,38,40,-1,42,-1,44,-1,46,48,50,52,54,56,-1,-1,58,60,62,-1,-1,-1,64,-1,-1,-1,-1,-1,-1,-1,-1,-1,-1,-1,-1,-1,-1,-1,-1,-1,-1,-1,-1,-1,-1,-1],"split_conditions":[3.7998492E2,3.4684128E2,3.853338E2,3.3835345E2,3.380863E1,5.4461594E1,3.870534E2,3.325396E2,5.1598835E1,3.3187748E1,5.1598835E1,2.7285843E1,1.0945947E0,9.063013E-2,-1.6517642E-1,-1.908344E0,2.0057654E0,2.8743113E1,3.4104916E1,4.9010063E1,3.985291E1,-1.6149012E0,9.0886706E-1,1.4819256E1,-1.6325697E-1,3.499008E1,-1.5666269E-1,1.209733E0,-2.098742E0,2.325913E0,3.3798622E1,-2.3293513E-1,2.6290133E0,1.3450947E0,-1.304348E-1,3.7156946E2,5.1598835E1,5.437438E1,9.060402E-2,-3.991383E-9,-1.6505793E-1,7.249537E-1,7.4050635E-1,4.9038464E-1,-1.2162163E-1,-1.4719628E-1,2.0192309E-1,-4.6391763E-2,-1.657543E-1,-1.3033025E-1,9.605912E-2,-4.054055E-2,4.6946567E-1,5.514706E-1,3.5381235E-2,-1.564819E-1,1.4754099E-1,9.0440524E-1,3.270142E-1,-1.5457185E-1,3.4615386E-1,1.4397495E0,3.9344263E-1,-1.304348E-1,1.3636364E-1],"split_indices":[0,0,0,0,18,22,0,0,22,19,22,18,0,4,0,8,14,18,18,21,23,3,0,19,0,18,0,14,10,15,19,8,15,0,0,0,22,21,0,0,0,12,0,0,0,0,0,0,0,0,0,0,0,0,0,0,0,0,0,0,0,0,0,0,0],"split_type":[0,0,0,0,0,0,0,0,0,0,0,0,0,0,0,0,0,0,0,0,0,0,0,0,0,0,0,0,0,0,0,0,0,0,0,0,0,0,0,0,0,0,0,0,0,0,0,0,0,0,0,0,0,0,0,0,0,0,0,0,0,0,0,0,0],"sum_hessian":[2.52E3,1.11276E3,1.40724E3,6.993E2,4.1346E2,6.9119995E1,1.33812E3,5.9075995E2,1.0853999E2,3.06E2,1.0746E2,6.642E1,2.6999998E0,1.9439999E1,1.3186799E3,5.22E2,6.8759995E1,9.432E1,1.4219999E1,1.7909999E2,1.26899994E2,1.04399994E2,3.06E0,1.8539999E1,4.7879997E1,3.7799997E0,1.5659999E1,8.639999E0,5.1336E2,6.4439995E1,4.3199997E0,4.8059998E1,4.626E1,1.062E1,3.6E0,1.6523999E2,1.386E1,1.2492E2,1.9799999E0,1.8E0,1.026E2,1.638E1,2.1599998E0,1.0799999E0,2.6999998E0,7.5599995E0,1.0799999E0,2.8799999E0,5.1047998E2,6.1379997E1,3.06E0,2.6999998E0,1.6199999E0,1.2599999E1,3.546E1,4.482E1,1.4399999E0,1.3248E2,3.276E1,1.278E1,1.0799999E0,1.23479996E2,1.4399999E0,1.1879999E1,4.5E0],"tree_param":{"num_deleted":"0","num_feature":"26","num_nodes":"65","size_leaf_vector":"1"}},{"base_weights":[-9.916721E-3,-1.6972317E-1,3.8679624E0,4.8732787E-1,-5.47395E-1,-1.5851273E-1,1.4813387E0,1.3566363E-1,4.7478495E0,-1.3812158E-1,-5.5190414E-1,6.5360624E-1,-5.128065E-1,1.1450378E-2,4.863222E0,-4.6415985E-1,7.7884614E-1,-3.9492247E-1,-5.5451447E-1,-4.3077555E-1,2.5942705E0,-1.6372798E-1,-1.6615415E-1,2.0192309E-1,1.4768233E0,5.7692308E-2,-1.5621081E-1,-1.605572E-1,4.9038464E-1,-3.3141214E-1,-1.6655469E-1,-1.659816E-1,4.9723756E-2,9.184055E-1,2.5556794E-1,2.0300752E-1,-8.5641615E-2,-1.3822527E-1,5.7692308E-2],"categories":[],"categories_nodes":[],"categories_segments":[],"categories_sizes":[],"default_left":[0,0,0,0,0,0,0,0,0,0,0,0,0,0,0,0,0,0,0,0,0,0,0,0,0,0,0,0,0,0,0,0,0,0,0,0,0,0,0],"id":4,"left_children":[1,3,5,7,9,-1,-1,11,13,15,17,19,21,-1,23,25,-1,27,29,31,33,35,-1,-1,-1,-1,-1,-1,-1,37,-1,-1,-1,-1,-1,-1,-1,-1,-1],"loss_changes":[1.5629456E3,6.0132996E2,4.7209717E2,1.3247583E3,2.7631226E0,0E0,0E0,2.7514426E2,3.644812E1,1.7340788E1,4.0444946E-1,9.5930237E2,5.1224136E0,0E0,1.3097656E1,7.318921E-1,0E0,8.948343E0,3.8604736E-2,2.1498802E1,1.3033972E2,4.255126E0,0E0,0E0,0E0,0E0,0E0,0E0,0E0,5.587026E-1,0E0,0E0,0E0,0E0,0E0,0E0,0E0,0E0,0E0],"parents":[2147483647,0,0,1,1,2,2,3,3,4,4,7,7,8,8,9,9,10,10,11,11,12,12,14,14,15,15,17,17,18,18,19,19,20,20,21,21,29,29],"right_children":[2,4,6,8,10,-1,-1,12,14,16,18,20,22,-1,24,26,-1,28,30,32,34,36,-1,-1,-1,-1,-1,-1,-1,38,-1,-1,-1,-1,-1,-1,-1,-1,-1],"split_conditions":[7.186953E1,2.6583273E1,3.4379013E2,4.3251774E1,2.7061659E1,-1.5851273E-1,1.4813387E0,3.9969162E2,3.9349144E1,4.6863827E1,2.7969524E1,3.65608E2,4.0993143E2,1.1450378E-2,3.6156113E2,-1.0798464E0,7.7884614E-1,4.2378304E1,-2.098742E0,3.5493457E2,3.9226218E2,-2.6316974E0,-1.6615415E-1,2.0192309E-1,1.4768233E0,5.7692308E-2,-1.5621081E-1,-1.605572E-1,4.9038464E-1,1.2186E0,-1.6655469E-1,-1.659816E-1,4.9723756E-2,9.184055E-1,2.5556794E-1,2.0300752E-1,-8.5641615E-2,-1.3822527E-1,5.7692308E-2],"split_indices":[23,19,0,20,19,0,0,0,18,20,19,0,0,0,0,3,0,20,10,0,0,21,0,0,0,0,0,0,0,4,0,0,0,0,0,0,0,0,0],"split_type":[0,0,0,0,0,0,0,0,0,0,0,0,0,0,0,0,0,0,0,0,0,0,0,0,0,0,0,0,0,0,0,0,0,0,0,0,0,0,0],"sum_hessian":[2.52E3,2.42118E3,9.881999E1,8.8361993E2,1.5375599E3,1.9439999E1,7.938E1,8.1719995E2,6.642E1,1.7099998E1,1.52046E3,4.5431998E2,3.6287997E2,1.6199999E0,6.4799995E1,1.6019999E1,1.0799999E0,2.7359999E1,1.4931E3,2.9196E2,1.6236E2,3.8699997E1,3.2418E2,1.0799999E0,6.3719997E1,1.0799999E0,1.494E1,2.6279999E1,1.0799999E0,5.9399996E0,1.4871599E3,2.4227998E2,4.9679996E1,1.27439995E2,3.492E1,4.3199997E0,3.4379997E1,4.8599997E0,1.0799999E0],"tree_param":{"num_deleted":"0","num_feature":"26","num_nodes":"39","size_leaf_vector":"1"}},{"base_weights":[1.745337E-2,-3.2647157E-1,2.1825283E0,2.5613999E-2,-5.4545325E-1,-1.6568327E-1,4.7855773E0,-1.0276045E-1,2.4292452E0,-5.4764336E-1,-1.4874144E-1,1.4912424E0,-1.426513E-1,2.0715913E-1,-5.387318E-1,-3.9702237E-1,4.010264E0,-4.92605E-1,-1.6652392E-1,-1.4490862E-1,3.4615386E-1,-4.6675196E-1,2.109542E0,1.7045453E-1,-5.4470557E-1,-1.5531337E-1,1.4754099E-1,3.982301E-2,4.192929E0,-5.3376645E-1,8.181818E-1,-1.6327764E-1,1.0580092E-1,8.201415E-1,8.910891E-2,2.0192309E-1,-9.8360665E-2,-1.3473056E-1,-1.6610229E-1,7.03125E-1,1.3690592E0,-1.6560307E-1,-2.4064178E-2,-1.2735851E-1,8.362832E-1],"categories":[],"categories_nodes":[],"categories_segments":[],"categories_sizes":[],"default_left":[0,0,0,0,0,0,0,0,0,0,0,0,0,0,0,0,0,0,0,0,0,0,0,0,0,0,0,0,0,0,0,0,0,0,0,0,0,0,0,0,0,0,0,0,0],"id":5,"left_children":[1,3,5,7,9,-1,11,13,15,17,19,-1,-1,21,23,25,27,29,-1,-1,-1,31,33,35,37,-1,-1,-1,39,41,43,-1,-1,-1,-1,-1,-1,-1,-1,-1,-1,-1,-1,-1,-1],"loss_changes":[1.8779075E3,1.678073E2,2.463624E3,2.5804938E2,1.0843811E0,0E0,1.7506714E2,1.0740456E2,1.9105157E2,2.72583E-1,4.363074E0,0E0,0E0,5.9695233E2,1.4918365E0,1.9838254E0,1.8765472E1,9.483696E0,0E0,0E0,0E0,2.2044731E1,1.369801E2,1.10233E0,3.2318115E-2,0E0,0E0,0E0,7.135956E0,1.3059578E0,1.46442795E1,0E0,0E0,0E0,0E0,0E0,0E0,0E0,0E0,0E0,0E0,0E0,0E0,0E0,0E0],"parents":[2147483647,0,0,1,1,2,2,3,3,4,4,6,6,7,7,8,8,9,9,10,10,13,13,14,14,15,15,16,16,17,17,21,21,22,22,23,23,24,24,28,28,29,29,30,30],"right_children":[2,4,6,8,10,-1,12,14,16,18,20,-1,-1,22,24,26,28,30,-1,-1,-1,32,34,36,38,-1,-1,-1,40,42,44,-1,-1,-1,-1,-1,-1,-1,-1,-1,-1,-1,-1,-1,-1],"split_conditions":[6.026942E1,1.8472006E1,3.7091223E2,4.2310535E1,5.9406734E1,-1.6568327E-1,3.7369938E1,4.1818335E2,3.7998492E2,2.4864094E1,3.8991336E2,1.4912424E0,-1.426513E-1,3.862311E2,5.1500463E0,1.2806862E1,5.1201673E0,5.1747074E1,-1.6652392E-1,-1.4490862E-1,3.4615386E-1,3.7768213E2,4.113855E2,4.2919504E2,4.2600378E2,-1.5531337E-1,1.4754099E-1,3.982301E-2,3.892454E2,3.806995E1,3.892454E2,-1.6327764E-1,1.0580092E-1,8.201415E-1,8.910891E-2,2.0192309E-1,-9.8360665E-2,-1.3473056E-1,-1.6610229E-1,7.03125E-1,1.3690592E0,-1.6560307E-1,-2.4064178E-2,-1.2735851E-1,8.362832E-1],"split_indices":[18,20,0,18,18,0,20,0,0,20,0,0,0,0,2,21,2,18,0,0,0,0,0,0,0,0,0,0,0,18,0,0,0,0,0,0,0,0,0,0,0,0,0,0,0],"split_type":[0,0,0,0,0,0,0,0,0,0,0,0,0,0,0,0,0,0,0,0,0,0,0,0,0,0,0,0,0,0,0,0,0,0,0,0,0,0,0,0,0,0,0,0,0],"sum_hessian":[2.52E3,2.1752998E3,3.4469998E2,8.3448E2,1.34082E3,1.6848E2,1.7621999E2,7.9307996E2,4.1399998E1,1.33308E3,7.74E0,1.7028E2,5.9399996E0,4.6386E2,3.2921997E2,1.5119999E1,2.6279999E1,1.6668E2,1.1663999E3,6.66E0,1.0799999E0,3.4308E2,1.2077999E2,2.52E0,3.2669998E2,1.3679999E1,1.4399999E0,1.26E0,2.5019999E1,1.6218E2,4.5E0,3.1374E2,2.9339998E1,8.946E1,3.1319998E1,1.0799999E0,1.4399999E0,3.2399998E1,2.943E2,5.3999996E0,1.9619999E1,1.557E2,6.4799995E0,3.2399998E0,1.26E0],"tree_param":{"num_deleted":"0","num_feature":"26","num_nodes":"45","size_leaf_vector":"1"}},{"base_weights":[5.1566632E-3,7.77999E-1,-5.064251E-1,-3.4603786E-2,4.38305E0,-1.4059123E-1,-5.428323E-1,-5.461875E-1,4.0458634E-1,4.598961E0,-1.4759727E-1,-5.419581E-1,1.6798419E0,-4.6499202E-1,-1.6555658E-1,-5.513879E-1,-2.0547947E-1,2.5601768E0,-4.1677052E-1,-1.2162163E-1,4.6787887E0,-1.6519357E-1,3.982301E-2,1.3401421E0,-1.5558511E-1,-5.3590655E-1,4.849641E-3,-1.662169E-1,-1.3513516E-1,1.0714286E-1,-1.3636364E-1,5.988024E-1,3.2616448E0,3.2955042E-1,-5.390631E-1,4.8147264E0,1.2593516E0,-1.6533163E-1,-1.4469455E-1,9.966443E-1,-1.5772533E-1,-1.0305344E-1,5.7692308E-2,1.0235022E-2,7.144639E-1,1.0651029E0,4.7039032E-1,4.6381584E-1,-3.2025397E-2,-3.991383E-9,-1.6277969E-1,7.9687506E-1,1.461092E0,-7.894737E-2,9.324325E-1,2.0192309E-1,-1.3424125E-1],"categories":[],"categories_nodes":[],"categories_segments":[],"categories_sizes":[],"default_left":[0,0,0,0,0,0,0,0,0,0,0,0,0,0,0,0,0,0,0,0,0,0,0,0,0,0,0,0,0,0,0,0,0,0,0,0,0,0,0,0,0,0,0,0,0,0,0,0,0,0,0,0,0,0,0,0,0],"id":6,"left_children":[1,3,5,7,9,11,13,15,17,19,-1,21,23,25,-1,27,29,31,33,-1,35,-1,-1,-1,-1,37,39,-1,41,-1,-1,43,45,47,49,51,53,-1,55,-1,-1,-1,-1,-1,-1,-1,-1,-1,-1,-1,-1,-1,-1,-1,-1,-1,-1],"loss_changes":[9.971269E2,2.9428086E3,2.0135254E1,1.8462242E2,1.9675708E2,1.0225315E2,7.124634E-1,5.5916595E-1,7.839507E2,7.2621826E1,0E0,7.43618E-1,1.5734909E2,4.989727E0,0E0,3.3969116E-1,1.1852872E0,1.6609216E2,2.9478806E1,0E0,7.497534E1,0E0,0E0,0E0,0E0,6.935921E-1,3.8041134E1,0E0,3.185158E-1,0E0,0E0,3.3542187E1,3.8312622E1,2.4484558E1,5.264969E-1,7.1362305E0,2.3392212E1,0E0,1.8412656E0,0E0,0E0,0E0,0E0,0E0,0E0,0E0,0E0,0E0,0E0,0E0,0E0,0E0,0E0,0E0,0E0,0E0,0E0],"parents":[2147483647,0,0,1,1,2,2,3,3,4,4,5,5,6,6,7,7,8,8,9,9,11,11,12,12,13,13,15,15,16,16,17,17,18,18,20,20,25,25,26,26,28,28,31,31,32,32,33,33,34,34,35,35,36,36,38,38],"right_children":[2,4,6,8,10,12,14,16,18,20,-1,22,24,26,-1,28,30,32,34,-1,36,-1,-1,-1,-1,38,40,-1,42,-1,-1,44,46,48,50,52,54,-1,56,-1,-1,-1,-1,-1,-1,-1,-1,-1,-1,-1,-1,-1,-1,-1,-1,-1,-1],"split_conditions":[2.5927952E1,4.1827522E1,2.7853922E1,3.968525E2,4.2748833E1,6.9117035E1,2.9708109E1,3.946676E2,4.3396075E2,3.6156113E2,-1.4759727E-1,5.471361E1,4.483559E1,4.6605774E1,-1.6555658E-1,5.9058323E0,-3.3662108E-1,4.0818274E2,4.439317E2,-1.2162163E-1,4.415841E2,-1.6519357E-1,3.982301E-2,1.3401421E0,-1.5558511E-1,7.589184E1,4.177548E1,-1.662169E-1,3.8279855E2,1.0714286E-1,-1.3636364E-1,8.253007E0,4.2994138E2,7.470178E-3,5.238971E0,-1.5791665E0,2.3195177E1,-1.6533163E-1,4.3087936E2,9.966443E-1,-1.5772533E-1,-1.0305344E-1,5.7692308E-2,1.0235022E-2,7.144639E-1,1.0651029E0,4.7039032E-1,4.6381584E-1,-3.2025397E-2,-3.991383E-9,-1.6277969E-1,7.9687506E-1,1.461092E0,-7.894737E-2,9.324325E-1,2.0192309E-1,-1.3424125E-1],"split_indices":[18,19,18,0,20,19,18,0,0,0,0,21,20,23,0,2,15,0,0,0,0,0,0,0,0,19,20,0,0,0,0,19,0,17,2,24,21,0,0,0,0,0,0,0,0,0,0,0,0,0,0,0,0,0,0,0,0],"split_type":[0,0,0,0,0,0,0,0,0,0,0,0,0,0,0,0,0,0,0,0,0,0,0,0,0,0,0,0,0,0,0,0,0,0,0,0,0,0,0,0,0,0,0,0,0,0,0,0,0,0,0,0,0,0,0,0,0],"sum_hessian":[2.52E3,1.00349994E3,1.5164999E3,8.1972E2,1.8378E2,1.377E2,1.3787999E3,3.7853998E2,4.4118E2,1.7604E2,7.74E0,1.13399994E2,2.43E1,1.4868E2,1.23012E3,3.7224E2,6.2999997E0,1.2113999E2,3.2003998E2,2.6999998E0,1.7334E2,1.1213999E2,1.26E0,1.0259999E1,1.4039999E1,1.2906E2,1.9619999E1,3.6953998E2,2.6999998E0,1.8E0,4.5E0,3.2399998E1,8.874E1,4.482E1,2.7522E2,1.6631999E2,7.0199995E0,1.2384E2,5.22E0,1.9799999E0,1.764E1,1.6199999E0,1.0799999E0,2.538E1,7.0199995E0,7.488E1,1.386E1,1.116E1,3.366E1,1.8E0,2.7341998E2,5.3999996E0,1.6092E2,4.3199997E0,2.6999998E0,1.0799999E0,4.14E0],"tree_param":{"num_deleted":"0","num_feature":"26","num_nodes":"57","size_leaf_vector":"1"}},{"base_weights":[1.5073363E-2,-2.443958E-1,4.8219266E0,-5.293779E-1,4.0547943E-1,-2.0361993E-1,1.4880707E0,-5.495111E-1,-1.4408195E-1,1.7900764E0,-3.6886996E-1,-1.16766475E-1,5.7692308E-2,-1.6616978E-1,-3.61724E-1,3.318335E-1,-4.836099E-1,1.3286253E0,1.4229012E0,-4.271422E-1,1.210611E0,-4.5657018E-1,5.6650245E-1,-8.2831345E-2,1.4E0,-5.221315E-1,1.0309277E-1,2.3277173E0,-4.0636885E-1,1.6916636E-1,-5.1001376E-1,-1.6172987E-1,1.7088608E-1,3.5496184E-1,-9.8360665E-2,-7.823742E-2,2.0300752E-1,-1.07142866E-1,5.487805E-1,1.1450378E-2,-1.6295639E-1,2.0192309E-1,-1.07142866E-1,4.51018E-1,9.0415174E-1,2.780899E-1,-1.5684266E-1,3.1967217E-1,-1.440778E-1,-1.10760935E-1,-1.6426785E-1],"categories":[],"categories_nodes":[],"categories_segments":[],"categories_sizes":[],"default_left":[0,0,0,0,0,0,0,0,0,0,0,0,0,0,0,0,0,0,0,0,0,0,0,0,0,0,0,0,0,0,0,0,0,0,0,0,0,0,0,0,0,0,0,0,0,0,0,0,0,0,0],"id":7,"left_children":[1,3,5,7,9,11,-1,13,15,17,19,-1,-1,-1,21,23,25,27,-1,29,-1,31,33,35,37,39,41,43,45,47,49,-1,-1,-1,-1,-1,-1,-1,-1,-1,-1,-1,-1,-1,-1,-1,-1,-1,-1,-1,-1],"loss_changes":[3.1454456E3,4.4337524E2,9.078613E1,1.2827576E1,7.833383E2,3.996532E-1,0E0,1.1023865E0,1.373052E1,3.5070795E2,1.2209016E2,0E0,0E0,0E0,3.6903982E0,1.5866591E1,1.1707554E0,3.9613068E2,0E0,2.3004898E1,0E0,3.349177E0,2.6272783E0,3.7664514E0,8.196169E0,5.6980705E-1,1.2582134E0,7.73772E1,1.3550765E1,3.3892227E1,1.9519119E0,0E0,0E0,0E0,0E0,0E0,0E0,0E0,0E0,0E0,0E0,0E0,0E0,0E0,0E0,0E0,0E0,0E0,0E0,0E0,0E0],"parents":[2147483647,0,0,1,1,2,2,3,3,4,4,5,5,7,7,8,8,9,9,10,10,14,14,15,15,16,16,17,17,19,19,21,21,22,22,23,23,24,24,25,25,26,26,27,27,28,28,29,29,30,30],"right_children":[2,4,6,8,10,12,-1,14,16,18,20,-1,-1,-1,22,24,26,28,-1,30,-1,32,34,36,38,40,42,44,46,48,50,-1,-1,-1,-1,-1,-1,-1,-1,-1,-1,-1,-1,-1,-1,-1,-1,-1,-1,-1,-1],"split_conditions":[6.690063E1,4.2361258E2,3.969733E1,4.168623E2,4.5233286E2,4.0446417E2,1.4880707E0,4.1394113E2,4.1233635E0,4.120573E1,4.52854E1,-1.16766475E-1,5.7692308E-2,-1.6616978E-1,1.6459445E0,1.0296415E0,1.5401895E0,6.492104E0,1.4229012E0,4.578418E2,1.210611E0,2.1651103E0,1.1896309E0,1.4887043E0,-2.4355717E-1,-1.6149012E0,2.8518593E-1,4.2411697E-1,6.4447675E0,8.900497E0,1.4745945E1,-1.6172987E-1,1.7088608E-1,3.5496184E-1,-9.8360665E-2,-7.823742E-2,2.0300752E-1,-1.07142866E-1,5.487805E-1,1.1450378E-2,-1.6295639E-1,2.0192309E-1,-1.07142866E-1,4.51018E-1,9.0415174E-1,2.780899E-1,-1.5684266E-1,3.1967217E-1,-1.440778E-1,-1.10760935E-1,-1.6426785E-1],"split_indices":[21,0,20,0,0,0,0,0,24,20,19,0,0,0,17,8,6,24,0,0,0,7,9,12,6,3,3,6,23,21,18,0,0,0,0,0,0,0,0,0,0,0,0,0,0,0,0,0,0,0,0],"split_type":[0,0,0,0,0,0,0,0,0,0,0,0,0,0,0,0,0,0,0,0,0,0,0,0,0,0,0,0,0,0,0,0,0,0,0,0,0,0,0,0,0,0,0,0,0,0,0,0,0,0,0],"sum_hessian":[2.52E3,2.3918398E3,1.2815999E2,1.66284E3,7.2899994E2,3.4199998E0,1.2474E2,1.57986E3,8.2979996E1,2.61E2,4.6799997E2,2.34E0,1.0799999E0,1.5418799E3,3.798E1,3.4559998E1,4.842E1,2.2698E2,3.4019997E1,4.6277997E2,5.22E0,3.492E1,3.06E0,2.556E1,9E0,4.5539997E1,2.8799999E0,1.4381999E2,8.3159996E1,5.6339996E1,4.0643997E2,3.276E1,2.1599998E0,1.6199999E0,1.4399999E0,2.124E1,4.3199997E0,1.8E0,7.2E0,1.6199999E0,4.392E1,1.0799999E0,1.8E0,6.678E1,7.703999E1,6.12E0,7.703999E1,2.34E1,3.294E1,8.784E1,3.1859998E2],"tree_param":{"num_deleted":"0","num_feature":"26","num_nodes":"51","size_leaf_vector":"1"}},{"base_weights":[1.5073363E-2,-5.078323E-1,1.7558104E0,-5.503375E-1,2.0974536E-1,3.1367652E0,-5.484578E-1,-5.51426E-1,1.259542E-1,1.3821893E0,-1.6418135E-1,1.9648416E0,4.8571234E0,3.982301E-2,-1.6590181E-1,-1.662386E-1,-4.1561717E-1,5.2798617E-1,1.3097253E0,2.9938722E0,2.2826613E-1,4.890336E0,5.7692308E-2,1.7256638E-1,-4.6305934E-1,1.5909091E0,4.1287993E-3,3.1651378E0,3.488372E-1,9.0909094E-1,-2.7408642E-1,1.4772131E0,5.7692308E-2,-1.5393014E-1,1.0714286E-1,-1.23711355E-1,6.9392526E-1,-5.031733E-2,3.6075953E-1,1.0042373E0,3.123924E-1,4.6551728E-1,-1.4062501E-1,6.3838124E-1,1.6503154E-1,-1.0233394E-1,1.3043478E-1],"categories":[],"categories_nodes":[],"categories_segments":[],"categories_sizes":[],"default_left":[0,0,0,0,0,0,0,0,0,0,0,0,0,0,0,0,0,0,0,0,0,0,0,0,0,0,0,0,0,0,0,0,0,0,0,0,0,0,0,0,0,0,0,0,0,0,0],"id":8,"left_children":[1,3,5,7,9,11,13,15,-1,17,-1,19,21,-1,-1,-1,23,25,-1,27,29,31,-1,-1,33,35,37,39,41,43,45,-1,-1,-1,-1,-1,-1,-1,-1,-1,-1,-1,-1,-1,-1,-1,-1],"loss_changes":[2.2956096E3,5.9269318E1,1.8555424E3,2.1654053E0,9.766015E1,7.251738E2,7.5242615E-1,4.4122314E-1,0E0,1.07589165E2,0E0,3.8966656E2,2.1831299E1,0E0,0E0,0E0,2.1325607E0,1.9292812E1,0E0,6.099353E1,2.8417448E1,2.2157959E1,0E0,0E0,1.7609749E0,1.7504313E1,5.1897874E0,4.6317993E1,1.0030949E1,1.4231115E1,2.4365442E0,0E0,0E0,0E0,0E0,0E0,0E0,0E0,0E0,0E0,0E0,0E0,0E0,0E0,0E0,0E0,0E0],"parents":[2147483647,0,0,1,1,2,2,3,3,4,4,5,5,6,6,7,7,9,9,11,11,12,12,16,16,17,17,19,19,20,20,21,21,24,24,25,25,26,26,27,27,28,28,29,29,30,30],"right_children":[2,4,6,8,10,12,14,16,-1,18,-1,20,22,-1,-1,-1,24,26,-1,28,30,32,-1,-1,34,36,38,40,42,44,46,-1,-1,-1,-1,-1,-1,-1,-1,-1,-1,-1,-1,-1,-1,-1,-1],"split_conditions":[4.4470264E2,4.3639072E2,3.0713661E1,6.272197E0,3.82819E1,1.795509E1,3.127054E1,4.331775E2,1.259542E-1,2.0018988E1,-1.6418135E-1,4.7217343E2,3.349181E1,3.982301E-2,-1.6590181E-1,-1.662386E-1,-1.5074811E0,-1.3959281E-1,1.3097253E0,2.7026426E1,4.803603E2,4.040724E1,5.7692308E-2,1.7256638E-1,2.2603657E0,7.8050256E-1,1.6058367E0,1.7952751E0,-1.29103E-1,-5.183E-1,1.7196497E0,1.4772131E0,5.7692308E-2,-1.5393014E-1,1.0714286E-1,-1.23711355E-1,6.9392526E-1,-5.031733E-2,3.6075953E-1,1.0042373E0,3.123924E-1,4.6551728E-1,-1.4062501E-1,6.3838124E-1,1.6503154E-1,-1.0233394E-1,1.3043478E-1],"split_indices":[0,0,20,2,19,21,20,0,0,22,0,0,18,0,0,0,6,6,0,18,0,19,0,0,9,1,15,6,7,7,12,0,0,0,0,0,0,0,0,0,0,0,0,0,0,0,0],"split_type":[0,0,0,0,0,0,0,0,0,0,0,0,0,0,0,0,0,0,0,0,0,0,0,0,0,0,0,0,0,0,0,0,0,0,0,0,0,0,0,0,0,0,0,0,0,0,0],"sum_hessian":[2.52E3,1.9384199E3,5.8157996E2,1.8302399E3,1.0817999E2,3.6341998E2,2.1815999E2,1.8286199E3,1.6199999E0,4.212E1,6.606E1,2.1743999E2,1.4598E2,1.26E0,2.169E2,1.7899199E3,3.8699997E1,3.366E1,8.46E0,1.3607999E2,8.135999E1,1.449E2,1.0799999E0,1.26E0,3.744E1,1.044E1,2.322E1,1.27619995E2,8.46E0,3.4199997E1,4.716E1,1.4381999E2,1.0799999E0,3.564E1,1.8E0,2.8799999E0,7.5599995E0,2.106E1,2.1599998E0,1.1699999E2,1.062E1,3.06E0,5.3999996E0,6.66E0,2.7539999E1,4.3559998E1,3.6E0],"tree_param":{"num_deleted":"0","num_feature":"26","num_nodes":"47","size_leaf_vector":"1"}},{"base_weights":[3.9664732E-4,-4.6303084E-1,4.082212E0,-5.3499067E-1,1.1120064E0,4.413244E0,-1.6888437E-1,-5.486486E-1,-4.815678E-2,1.6859585E-1,1.3990386E0,3.3863478E0,1.4882705E0,-1.5754925E-1,8.362832E-1,-1.6628692E-1,-4.1536403E-1,-2.842693E-1,1.0360825E0,9.655729E-1,-5.196305E-1,3.8278198E0,-2.1235524E-1,-5.038584E-1,8.85246E-1,-3.7892795E-1,9.90566E-1,6.851312E-1,9.5876294E-1,5.7692308E-2,-1.6271912E-1,2.9968784E0,1.3627352E0,3.0530974E-1,-1.4835167E-1,7.594936E-2,-1.577478E-1,9.0078324E-2,-1.4418215E-1,-1.0305344E-1,5.839695E-1,1.3018136E-1,6.8552035E-1,9.598338E-1,-2.6946114E-2],"categories":[],"categories_nodes":[],"categories_segments":[],"categories_sizes":[],"default_left":[0,0,0,0,0,0,0,0,0,0,0,0,0,0,0,0,0,0,0,0,0,0,0,0,0,0,0,0,0,0,0,0,0,0,0,0,0,0,0,0,0,0,0,0,0],"id":9,"left_children":[1,3,5,7,9,11,13,15,17,19,-1,21,-1,-1,-1,-1,23,25,-1,27,29,31,33,35,-1,37,39,41,-1,-1,-1,43,-1,-1,-1,-1,-1,-1,-1,-1,-1,-1,-1,-1,-1],"loss_changes":[4.7706777E3,2.5729276E2,3.6260547E2,1.4379456E1,3.3184943E2,1.1738623E2,2.2046206E1,1.354187E0,5.0772285E1,4.4096565E1,0E0,1.3766565E2,0E0,0E0,0E0,0E0,2.8165672E1,7.29481E0,0E0,2.106538E1,8.061285E-1,3.1980103E1,4.098801E0,1.5985508E0,0E0,3.8804202E0,6.0762634E0,1.2793367E1,0E0,0E0,0E0,2.4322601E1,0E0,0E0,0E0,0E0,0E0,0E0,0E0,0E0,0E0,0E0,0E0,0E0,0E0],"parents":[2147483647,0,0,1,1,2,2,3,3,4,4,5,5,6,6,7,7,8,8,9,9,11,11,16,16,17,17,19,19,20,20,21,21,22,22,23,23,25,25,26,26,27,27,31,31],"right_children":[2,4,6,8,10,12,14,16,18,20,-1,22,-1,-1,-1,-1,24,26,-1,28,30,32,34,36,-1,38,40,42,-1,-1,-1,44,-1,-1,-1,-1,-1,-1,-1,-1,-1,-1,-1,-1,-1],"split_conditions":[4.700645E2,4.6223358E2,3.482145E1,4.578418E2,3.434228E1,2.9452526E1,3.4104916E1,4.508192E2,3.5350323E1,1.3377166E1,1.3990386E0,1.1163187E1,1.4882705E0,-1.5754925E-1,8.362832E-1,-1.6628692E-1,3.806995E1,1.062055E0,1.0360825E0,2.62321E1,-1.471837E0,4.7944183E2,2.0499418E0,-2.3785634E0,8.85246E-1,-5.6607105E-2,5.734996E-1,1.4249237E0,9.5876294E-1,5.7692308E-2,-1.6271912E-1,1.7196497E0,1.3627352E0,3.0530974E-1,-1.4835167E-1,7.594936E-2,-1.577478E-1,9.0078324E-2,-1.4418215E-1,-1.0305344E-1,5.839695E-1,1.3018136E-1,6.8552035E-1,9.598338E-1,-2.6946114E-2],"split_indices":[0,0,21,0,18,18,18,0,18,21,0,21,0,0,0,0,18,1,0,18,13,0,23,21,0,22,11,7,0,0,0,12,0,0,0,0,0,0,0,0,0,0,0,0,0],"split_type":[0,0,0,0,0,0,0,0,0,0,0,0,0,0,0,0,0,0,0,0,0,0,0,0,0,0,0,0,0,0,0,0,0,0,0,0,0,0,0,0,0,0,0,0,0],"sum_hessian":[2.52E3,2.2638599E3,2.5613998E2,2.1655798E3,9.828E1,2.3759999E2,1.8539999E1,2.1063599E3,5.9219997E1,7.8479996E1,1.98E1,8.514E1,1.5245999E2,1.7279999E1,1.26E0,2.0177999E3,8.856E1,5.6339996E1,2.8799999E0,3.618E1,4.23E1,7.578E1,9.36E0,8.7119995E1,1.4399999E0,5.31E1,3.2399998E0,3.33E1,2.8799999E0,1.0799999E0,4.1219997E1,3.744E1,3.834E1,1.26E0,8.099999E0,2.1599998E0,8.496E1,6.66E0,4.644E1,1.6199999E0,1.6199999E0,2.988E1,3.4199998E0,3.51E1,2.34E0],"tree_param":{"num_deleted":"0","num_feature":"26","num_nodes":"45","size_leaf_vector":"1"}},{"base_weights":[-1.956488E-2,1.1876855E0,-5.0790495E-1,1.3279986E0,-1.5878461E-1,2.2107626E-1,-5.308527E-1,1.3323088E0,-1.06307514E-1,-1.2487036E-1,4.090305E-1,-3.3400974E-1,-1.6155781E-1,1.031522E0,1.3645837E0,6.1138153E-1,-4.2714107E-1,-4.663569E-1,5.1184416E-1,1.2305021E0,3.270308E-1,1.3712549E0,5.356035E-1,-9.4002634E-2,1.4035699E0,1.09451465E-1,-4.8903066E-1,2.3789628E-1,-4.9731785E-1,6.1567463E-2,4.0505818E-1,1.917722E-1,-1.5179487E-1,4.129956E-1,2.583285E-1,-1.2527794E-1,2.8963116E-1,-1.4531276E-1,3.3504042E-1,6.0163593E-1,-5.327057E-4,-1.5680858E-1,5.293567E-2,2.1229194E-1,-9.063579E-2,-1.5413499E-1,4.8621345E-2],"categories":[],"categories_nodes":[],"categories_segments":[],"categories_sizes":[],"default_left":[0,0,0,0,0,0,0,0,0,0,0,0,0,0,0,0,0,0,0,0,0,0,0,0,0,0,0,0,0,0,0,0,0,0,0,0,0,0,0,0,0,0,0,0,0,0,0],"id":10,"left_children":[1,3,5,7,-1,9,11,13,-1,15,-1,17,-1,19,21,23,25,27,-1,29,31,33,35,37,39,-1,41,43,45,-1,-1,-1,-1,-1,-1,-1,-1,-1,-1,-1,-1,-1,-1,-1,-1,-1,-1],"loss_changes":[1.3888799E3,1.641623E2,2.8176178E1,5.022339E0,0E0,2.0678925E1,2.276764E0,4.6707764E0,0E0,9.329616E0,0E0,1.798322E1,0E0,8.677284E0,2.3756104E0,6.989212E0,1.6232405E0,1.4388456E0,0E0,5.8765106E0,4.387711E0,3.4887695E-1,2.9148695E0,4.0522046E0,4.945771E0,0E0,7.143173E-1,1.0323349E0,7.1663094E-1,0E0,0E0,0E0,0E0,0E0,0E0,0E0,0E0,0E0,0E0,0E0,0E0,0E0,0E0,0E0,0E0,0E0,0E0],"parents":[2147483647,0,0,1,1,2,2,3,3,5,5,6,6,7,7,9,9,11,11,13,13,14,14,15,15,16,16,17,17,19,19,20,20,21,21,22,22,23,23,24,24,26,26,27,27,28,28],"right_children":[2,4,6,8,-1,10,12,14,-1,16,-1,18,-1,20,22,24,26,28,-1,30,32,34,36,38,40,-1,42,44,46,-1,-1,-1,-1,-1,-1,-1,-1,-1,-1,-1,-1,-1,-1,-1,-1,-1,-1],"split_conditions":[3.169579E2,5.2442482E1,3.2079382E2,3.713581E1,-1.5878461E-1,6.6838745E1,3.2753964E2,7.0183825E-1,-1.06307514E-1,2.1316708E1,4.090305E-1,6.486354E1,-1.6155781E-1,1.0067751E0,2.468341E0,1.1626586E0,4.7048454E0,-2.236523E0,5.1184416E-1,-5.443215E-1,9.4682586E-1,4.856091E1,-5.693262E-1,1.8154799E1,1.021964E0,1.09451465E-1,2.4270766E0,5.058391E0,2.3949907E0,6.1567463E-2,4.0505818E-1,1.917722E-1,-1.5179487E-1,4.129956E-1,2.583285E-1,-1.2527794E-1,2.8963116E-1,-1.4531276E-1,3.3504042E-1,6.0163593E-1,-5.327057E-4,-1.5680858E-1,5.293567E-2,2.1229194E-1,-9.063579E-2,-1.5413499E-1,4.8621345E-2],"split_indices":[0,18,0,22,0,19,0,21,0,18,0,19,0,11,10,5,2,20,0,5,4,18,14,18,8,0,10,2,9,0,0,0,0,0,0,0,0,0,0,0,0,0,0,0,0,0,0],"split_type":[0,0,0,0,0,0,0,0,0,0,0,0,0,0,0,0,0,0,0,0,0,0,0,0,0,0,0,0,0,0,0,0,0,0,0,0,0,0,0,0,0,0,0,0,0,0,0],"sum_hessian":[2.3538125E3,6.774994E2,1.676313E3,6.265254E2,5.0974014E1,5.089505E1,1.625418E3,6.251319E2,1.3934864E0,3.974849E1,1.1146559E1,6.2655453E1,1.5627625E3,6.377182E1,5.613601E2,1.1271487E1,2.8477003E1,5.9562954E1,3.0925012E0,4.9144535E1,1.4627282E1,5.5622974E2,5.130367E0,6.428622E0,4.8428655E0,1.7092569E0,2.6767746E1,2.2268193E0,5.7336132E1,5.4212027E0,4.372333E1,1.0808806E1,3.8184757E0,5.487261E2,7.5036287E0,1.6033232E0,3.5270436E0,5.3149824E0,1.1136391E0,3.0917213E0,1.751144E0,2.5683086E1,1.0846598E0,1.0248909E0,1.2019283E0,5.6154728E1,1.1814053E0],"tree_param":{"num_deleted":"0","num_feature":"26","num_nodes":"47","size_leaf_vector":"1"}},{"base_weights":[-1.1022402E-2,8.308177E-1,-5.059037E-1,1.1370587E0,-5.300903E-1,-3.8541026E-2,-5.3268075E-1,6.725626E-1,1.3881114E0,-1.6065112E-1,3.349591E-2,-3.4545583E-1,4.3942806E-1,1.6271324E-1,-5.340868E-1,8.6339915E-1,-3.575623E-1,1.83875E0,4.110367E-1,6.2504387E-1,-4.2465848E-1,-2.9846153E-1,-5.3675354E-1,-3.212278E-1,1.016316E0,8.65607E-1,-4.517613E-1,3.557667E-2,5.985944E-1,5.058304E-1,-1.2067858E-1,3.2307866E-1,-4.7023323E-1,-1.5284088E-1,3.6710867E-1,-5.3818023E-1,-3.524623E-1,-1.1814291E-1,1.8100622E-1,3.5614508E-1,1.459645E-1,-9.037429E-2,5.121579E-1,-1.5020105E-1,1.3993187E-2,1.4148796E-1,-1.5030102E-1,-9.07043E-2,-1.6167068E-1,-1.487926E-1,2.1565843E-1],"categories":[],"categories_nodes":[],"categories_segments":[],"categories_sizes":[],"default_left":[0,0,0,0,0,0,0,0,0,0,0,0,0,0,0,0,0,0,0,0,0,0,0,0,0,0,0,0,0,0,0,0,0,0,0,0,0,0,0,0,0,0,0,0,0,0,0,0,0,0,0],"id":11,"left_children":[1,3,5,7,9,11,13,15,17,-1,-1,19,-1,-1,21,23,25,27,-1,29,31,33,35,37,39,41,43,-1,-1,-1,-1,-1,45,-1,-1,47,49,-1,-1,-1,-1,-1,-1,-1,-1,-1,-1,-1,-1,-1,-1],"loss_changes":[9.7820593E2,3.628911E2,1.8485016E1,8.18526E1,6.168976E-1,3.7974403E1,2.403656E0,4.9655334E1,1.2089233E0,0E0,0E0,5.5114717E0,0E0,0E0,7.176819E-1,3.8744156E1,4.993152E0,3.7305336E0,0E0,6.7324047E0,4.8653383E0,6.368896E0,1.7321777E-1,1.9157009E0,1.6443329E1,3.65569E0,9.433775E-1,0E0,0E0,0E0,0E0,0E0,2.0480375E0,0E0,0E0,6.997681E-2,2.432366E0,0E0,0E0,0E0,0E0,0E0,0E0,0E0,0E0,0E0,0E0,0E0,0E0,0E0,0E0],"parents":[2147483647,0,0,1,1,2,2,3,3,4,4,5,5,6,6,7,7,8,8,11,11,14,14,15,15,16,16,17,17,19,19,20,20,21,21,22,22,23,23,24,24,25,25,26,26,32,32,35,35,36,36],"right_children":[2,4,6,8,10,12,14,16,18,-1,-1,20,-1,-1,22,24,26,28,-1,30,32,34,36,38,40,42,44,-1,-1,-1,-1,-1,46,-1,-1,48,50,-1,-1,-1,-1,-1,-1,-1,-1,-1,-1,-1,-1,-1,-1],"split_conditions":[3.3835345E2,2.9026716E1,3.451432E2,4.41645E1,6.865809E1,3.9643387E1,3.5886705E-1,7.2691936E0,4.9833294E1,-1.6065112E-1,3.349591E-2,-1.3054289E0,4.3942806E-1,1.6271324E-1,3.4684128E2,2.9934735E2,2.9085464E0,3.0349533E2,4.110367E-1,-1.3603266E-1,-3.912591E0,4.117822E1,7.202511E1,2.264672E0,1.2576538E0,9.8183304E-1,2.0328703E0,3.557667E-2,5.985944E-1,5.058304E-1,-1.2067858E-1,3.2307866E-1,-3.7146275E0,-1.5284088E-1,3.6710867E-1,4.2882034E-1,3.0713661E1,-1.1814291E-1,1.8100622E-1,3.5614508E-1,1.459645E-1,-9.037429E-2,5.121579E-1,-1.5020105E-1,1.3993187E-2,1.4148796E-1,-1.5030102E-1,-9.07043E-2,-1.6167068E-1,-1.487926E-1,2.1565843E-1],"split_indices":[0,21,0,18,22,18,1,21,18,0,0,20,0,0,0,0,20,0,0,14,24,18,18,14,13,15,12,0,0,0,0,0,23,0,0,1,20,0,0,0,0,0,0,0,0,0,0,0,0,0,0],"split_type":[0,0,0,0,0,0,0,0,0,0,0,0,0,0,0,0,0,0,0,0,0,0,0,0,0,0,0,0,0,0,0,0,0,0,0,0,0,0,0,0,0,0,0,0,0,0,0,0,0,0,0],"sum_hessian":[2.3459995E3,8.6828516E2,1.4777144E3,7.0892285E2,1.5936229E2,8.020845E1,1.3975059E3,2.5001865E2,4.589042E2,1.5819339E2,1.1688907E0,6.724905E1,1.29594E1,1.3228652E0,1.396183E3,2.1107722E2,3.894142E1,1.373046E1,4.4517374E2,4.554112E0,6.2694935E1,1.688819E1,1.3792948E3,2.400591E1,1.870713E2,2.1989563E0,3.6742462E1,1.292068E0,1.2438392E1,1.9247948E0,2.6293173E0,1.1801951E0,6.151474E1,1.5416398E1,1.4717904E0,1.3667935E3,1.2501418E1,2.2790844E1,1.2150681E0,1.4051768E2,4.655362E1,1.1904503E0,1.0085058E0,3.3454964E1,3.2875016E0,1.4928209E0,6.002192E1,5.4529915E0,1.3613405E3,1.1498181E1,1.0032362E0],"tree_param":{"num_deleted":"0","num_feature":"26","num_nodes":"51","size_leaf_vector":"1"}},{"base_weights":[-6.4500785E-3,5.915656E-1,-5.14952E-1,9.9417603E-1,-5.260314E-1,-2.1215807E-1,-1.6158977E-1,-2.5546712E-1,1.1493214E0,-5.3292274E-1,1.3065098E-1,-3.0690706E-1,7.968319E-1,-4.1308394E-1,1.2148304E0,1.2059518E0,-1.562939E-1,-1.6091496E-1,-7.5601186E-3,-3.6449334E-1,4.283934E-1,5.4021806E-1,-1.2716383E-1,-4.3608138E-1,1.4912948E-1,-9.396778E-2,4.5730603E-1,1.2579569E0,-1.6706607E-1,3.7658054E-2,-4.3489054E-1,1.1933984E0,-1.2195136E-1,-1.4094314E-1,2.911286E-2,4.041596E-1,2.164535E-1,-8.964603E-2,2.9339632E-1,1.386072E-1,-1.3861692E-1,5.4891413E-1,-8.1800215E-2],"categories":[],"categories_nodes":[],"categories_segments":[],"categories_sizes":[],"default_left":[0,0,0,0,0,0,0,0,0,0,0,0,0,0,0,0,0,0,0,0,0,0,0,0,0,0,0,0,0,0,0,0,0,0,0,0,0,0,0,0,0,0,0],"id":12,"left_children":[1,3,5,7,9,11,-1,13,15,17,-1,19,21,23,25,27,-1,-1,-1,29,31,-1,-1,33,-1,-1,-1,35,-1,37,39,41,-1,-1,-1,-1,-1,-1,-1,-1,-1,-1,-1],"loss_changes":[7.104675E2,4.836326E2,8.939484E0,1.5339288E2,2.1206207E0,9.158075E0,0E0,2.0902248E1,6.7091125E1,4.8445892E-1,0E0,3.7957602E0,1.0912427E1,1.8966255E0,4.628685E0,6.303192E1,0E0,0E0,0E0,2.288354E0,4.7660174E0,0E0,0E0,1.4627028E0,0E0,0E0,0E0,3.065918E1,0E0,4.3661532E0,1.8795109E0,3.9988208E0,0E0,0E0,0E0,0E0,0E0,0E0,0E0,0E0,0E0,0E0,0E0],"parents":[2147483647,0,0,1,1,2,2,3,3,4,4,5,5,7,7,8,8,9,9,11,11,12,12,13,13,14,14,15,15,19,19,20,20,23,23,27,27,29,29,30,30,31,31],"right_children":[2,4,6,8,10,12,-1,14,16,18,-1,20,22,24,26,28,-1,-1,-1,30,32,-1,-1,34,-1,-1,-1,36,-1,38,40,42,-1,-1,-1,-1,-1,-1,-1,-1,-1,-1,-1],"split_conditions":[3.602008E2,3.766862E1,3.692286E2,3.185446E2,5.5804424E1,5.0161346E1,-1.6158977E-1,1.736209E1,5.4461594E1,3.0656688E0,1.3065098E-1,1.6728548E0,3.3798622E1,2.898021E0,3.059636E2,4.117822E1,-1.562939E-1,-1.6091496E-1,-7.5601186E-3,-3.1158015E-1,1.8222308E-1,5.4021806E-1,-1.2716383E-1,4.7525673E0,1.4912948E-1,-9.396778E-2,4.5730603E-1,3.5155753E2,-1.6706607E-1,1.2788442E0,-3.9868457E0,3.6414505E1,-1.2195136E-1,-1.4094314E-1,2.911286E-2,4.041596E-1,2.164535E-1,-8.964603E-2,2.9339632E-1,1.386072E-1,-1.3861692E-1,5.4891413E-1,-8.1800215E-2],"split_indices":[0,19,0,0,24,21,0,21,22,10,0,8,19,15,0,18,0,0,0,15,4,0,0,24,0,0,0,0,0,9,22,20,0,0,0,0,0,0,0,0,0,0,0],"split_type":[0,0,0,0,0,0,0,0,0,0,0,0,0,0,0,0,0,0,0,0,0,0,0,0,0,0,0,0,0,0,0,0,0,0,0,0,0,0,0,0,0,0,0],"sum_hessian":[2.3343547E3,1.0726814E3,1.2616733E3,7.886745E2,2.8400684E2,9.223691E1,1.1694365E3,8.7030136E1,7.016444E2,2.824284E2,1.5784152E0,8.495505E1,7.2818584E0,7.92532E1,7.7769446E0,6.7890466E2,2.2739746E1,2.8046045E2,1.9679606E0,7.925255E1,5.7025023E0,3.7350574E0,3.5468013E0,7.780811E1,1.4450817E0,1.3079377E0,6.469007E0,6.597285E2,1.9176117E1,1.1875811E1,6.737674E1,2.7517335E0,2.9507685E0,7.329005E1,4.5180674E0,5.6433575E2,9.5392784E1,9.248601E0,2.627209E0,1.5101373E0,6.58666E1,1.745913E0,1.0058205E0],"tree_param":{"num_deleted":"0","num_feature":"26","num_nodes":"43","size_leaf_vector":"1"}},{"base_weights":[8.017077E-3,4.2623034E-1,-5.198042E-1,-4.5107478E-1,9.314953E-1,-1.8616131E-1,-5.33363E-1,-5.109192E-1,8.5291125E-2,1.1247863E0,-1.6069183E-1,-3.511055E-1,4.2580396E-1,-4.6478996E-1,-5.382765E-1,-5.278839E-1,-3.3602726E-1,-1.7621537E-1,9.685083E-1,6.1963516E-1,1.2986237E0,4.862375E-2,-1.5609637E-1,-5.0456643E-1,2.940376E-1,-2.9575285E-1,-1.6180609E-1,-2.2274552E-1,-5.3278947E-1,-4.42479E-1,2.5128627E-1,9.694889E-1,-2.8568518E-1,4.4041035E-1,-1.1995995E-1,3.276286E-1,4.4105703E-1,8.7055653E-1,1.3884267E0,9.5135564E-1,-2.929433E-1,-5.1789725E-1,4.182487E-2,6.817709E-2,-1.3127194E-1,-1.3804476E-1,1.8574403E-1,-2.905758E-2,-1.6059572E-1,-1.4047706E-1,5.6337215E-2,-7.7795714E-2,3.7664923E-1,4.433652E-1,2.6531657E-2,-1.0839651E-1,2.7792853E-1,1.8505898E-1,-1.5637587E-1,3.7451875E-1,1.0764471E-1,4.2175356E-1,-2.2225916E-2,1.371517E-2,4.7911036E-1,-1.45084E-1,1.7112705E-1,-1.5950623E-1,1.3014437E-2],"categories":[],"categories_nodes":[],"categories_segments":[],"categories_sizes":[],"default_left":[0,0,0,0,0,0,0,0,0,0,0,0,0,0,0,0,0,0,0,0,0,0,0,0,0,0,0,0,0,0,0,0,0,0,0,0,0,0,0,0,0,0,0,0,0,0,0,0,0,0,0,0,0,0,0,0,0,0,0,0,0,0,0,0,0,0,0,0,0],"id":13,"left_children":[1,3,5,7,9,11,13,15,17,19,-1,21,-1,23,25,27,29,31,33,35,37,39,-1,41,-1,43,-1,45,47,49,51,53,55,-1,-1,57,-1,59,61,63,65,67,-1,-1,-1,-1,-1,-1,-1,-1,-1,-1,-1,-1,-1,-1,-1,-1,-1,-1,-1,-1,-1,-1,-1,-1,-1,-1,-1],"loss_changes":[5.1901434E2,5.8190857E2,4.6028137E0,1.5453423E1,2.3675153E2,1.1654398E1,8.618164E-2,1.1044617E0,1.1498394E1,6.383661E1,0E0,2.6635475E0,0E0,4.751793E0,8.215332E-2,4.6821594E-1,2.67163E0,5.1290703E0,8.350637E0,4.68015E1,1.980896E1,4.1376452E0,0E0,6.967373E-1,0E0,5.671038E-1,0E0,1.8682572E0,3.7286377E-1,6.570964E-1,3.8747323E0,1.482563E0,3.6430244E0,0E0,0E0,3.5433674E1,0E0,1.8402351E1,1.1574097E1,2.07355E0,1.8964007E0,5.7637405E-1,0E0,0E0,0E0,0E0,0E0,0E0,0E0,0E0,0E0,0E0,0E0,0E0,0E0,0E0,0E0,0E0,0E0,0E0,0E0,0E0,0E0,0E0,0E0,0E0,0E0,0E0,0E0],"parents":[2147483647,0,0,1,1,2,2,3,3,4,4,5,5,6,6,7,7,8,8,9,9,11,11,13,13,14,14,15,15,16,16,17,17,18,18,19,19,20,20,21,21,23,23,25,25,27,27,28,28,29,29,30,30,31,31,32,32,35,35,37,37,38,38,39,39,40,40,41,41],"right_children":[2,4,6,8,10,12,14,16,18,20,-1,22,-1,24,26,28,30,32,34,36,38,40,-1,42,-1,44,-1,46,48,50,52,54,56,-1,-1,58,-1,60,62,64,66,68,-1,-1,-1,-1,-1,-1,-1,-1,-1,-1,-1,-1,-1,-1,-1,-1,-1,-1,-1,-1,-1,-1,-1,-1,-1,-1,-1],"split_conditions":[3.8279855E2,3.4060712E2,3.870534E2,3.3669107E2,3.7265343E1,5.4461594E1,3.946676E2,3.325396E2,5.1598835E1,3.5155753E2,-1.6069183E-1,2.812205E1,4.2580396E-1,5.267719E1,5.380952E-1,-1.908344E0,5.4278646E0,-1.0466163E0,3.4104916E1,5.267719E1,3.6449614E0,9.063013E-2,-1.5609637E-1,2.3376567E0,2.940376E-1,2.4025059E1,-1.6180609E-1,1.209733E0,-2.098742E0,2.4157193E0,1.391245E0,-2.74354E-1,2.6306136E0,4.4041035E-1,-1.1995995E-1,2.4245815E1,4.4105703E-1,3.6655176E2,5.6752666E1,6.132567E-1,5.4175525E0,2.3308904E0,4.182487E-2,6.817709E-2,-1.3127194E-1,-1.3804476E-1,1.8574403E-1,-2.905758E-2,-1.6059572E-1,-1.4047706E-1,5.6337215E-2,-7.7795714E-2,3.7664923E-1,4.433652E-1,2.6531657E-2,-1.0839651E-1,2.7792853E-1,1.8505898E-1,-1.5637587E-1,3.7451875E-1,1.0764471E-1,4.2175356E-1,-2.2225916E-2,1.371517E-2,4.7911036E-1,-1.45084E-1,1.7112705E-1,-1.5950623E-1,1.3014437E-2],"split_indices":[0,0,0,0,18,22,0,0,22,0,0,18,0,22,1,8,2,8,18,22,19,4,0,3,0,25,0,14,10,15,12,5,13,0,0,23,0,0,24,16,21,12,0,0,0,0,0,0,0,0,0,0,0,0,0,0,0,0,0,0,0,0,0,0,0,0,0,0,0],"split_type":[0,0,0,0,0,0,0,0,0,0,0,0,0,0,0,0,0,0,0,0,0,0,0,0,0,0,0,0,0,0,0,0,0,0,0,0,0,0,0,0,0,0,0,0,0,0,0,0,0,0,0,0,0,0,0,0,0,0,0,0,0,0,0,0,0,0,0,0,0],"sum_hessian":[2.3492244E3,1.3108107E3,1.0384137E3,4.7907944E2,8.317312E2,4.1127075E1,9.972866E2,4.3103464E2,4.804479E1,7.351152E2,9.6616035E1,3.800399E1,3.1230843E0,7.307313E1,9.242135E2,3.9108105E2,3.995358E1,3.768681E1,1.0357977E1,1.8937582E2,5.457394E2,1.1515109E1,2.6488882E1,7.174878E1,1.3243449E0,5.304985E0,9.189085E2,6.922003E0,3.8415906E2,3.4031845E1,5.921736E0,2.6016705E0,3.508514E1,7.5346265E0,2.823351E0,1.4200786E2,4.736796E1,9.64902E1,4.4924915E2,2.670896E0,8.844213E0,7.048548E1,1.2632989E0,1.0031403E0,4.3018446E0,5.7531247E0,1.1688784E0,2.4429388E0,3.8171613E2,3.2941597E1,1.0902485E0,4.41741E0,1.5043261E0,1.2201765E0,1.3814942E0,3.368508E1,1.4000579E0,1.0612262E2,3.5885242E1,5.4678963E1,4.1811237E1,4.4399988E2,5.249281E0,1.5573456E0,1.1135505E0,7.6046233E0,1.2395896E0,6.8846695E1,1.638791E0],"tree_param":{"num_deleted":"0","num_feature":"26","num_nodes":"69","size_leaf_vector":"1"}},{"base_weights":[-6.0365517E-3,4.7582862E-1,-5.225248E-1,-2.9772153E-2,1.2841557E0,-5.341937E-1,4.240305E-1,2.56393E-1,-5.258893E-1,3.8197374E-1,1.4000698E0,-5.3654635E-1,-2.2362418E-1,-1.3978587E-1,3.6227727E-1,-4.27865E-1,9.937917E-1,-2.1390523E-1,-1.6200382E-1,7.725088E-1,-3.1596956E-1,-1.3579033E-1,1.4240313E0,-2.744814E-1,-5.374251E-1,-1.4297801E-1,2.3878296E-1,-1.6178383E-1,-4.1809775E-2,4.2679062E-1,1.230532E0,-4.1031203E-1,4.8024628E-1,1.290289E0,-4.8508685E-2,-4.5211565E-1,2.4134019E-1,1.4465983E0,-1.8574859E-1,5.9949506E-2,-1.2716146E-1,-2.8007707E-1,-1.6149227E-1,6.0965195E-2,-1.4697544E-1,6.416965E-2,3.9247844E-1,4.6777496E-1,2.4692942E-1,6.348211E-2,-1.4853086E-1,3.3334163E-1,-9.3489684E-2,-1.31726E-1,5.213652E-1,-1.493334E-1,1.8030348E-1,-3.9497525E-3,-1.6734377E-1,6.0124063E-1,4.1336107E-1,1.7502287E-1,-1.3206907E-1,6.5630205E-2,-1.2912273E-1],"categories":[],"categories_nodes":[],"categories_segments":[],"categories_sizes":[],"default_left":[0,0,0,0,0,0,0,0,0,0,0,0,0,0,0,0,0,0,0,0,0,0,0,0,0,0,0,0,0,0,0,0,0,0,0,0,0,0,0,0,0,0,0,0,0,0,0,0,0,0,0,0,0,0,0,0,0,0,0,0,0,0,0,0,0],"id":14,"left_children":[1,3,5,7,9,11,13,15,17,19,21,23,25,-1,-1,27,29,31,-1,33,35,-1,37,39,41,-1,-1,-1,43,45,47,49,51,53,55,57,-1,59,61,-1,-1,63,-1,-1,-1,-1,-1,-1,-1,-1,-1,-1,-1,-1,-1,-1,-1,-1,-1,-1,-1,-1,-1,-1,-1],"loss_changes":[5.8516327E2,4.971619E2,1.2761017E1,1.065131E2,4.841571E1,6.994324E-1,1.0588602E1,2.4053445E2,1.093689E0,1.5145201E1,1.9042053E1,1.0864258E-1,2.9962049E0,0E0,0E0,1.0624115E1,3.025978E1,2.0431886E0,0E0,1.5087719E1,3.464041E0,0E0,1.5140259E1,4.9293247E-1,1.0076904E-1,0E0,0E0,0E0,6.3054643E0,1.2684131E1,2.0314026E1,6.897845E-1,2.06842E0,1.7568832E1,4.5692816E0,8.631499E-1,0E0,1.2712402E1,1.5380651E0,0E0,0E0,5.343116E-1,0E0,0E0,0E0,0E0,0E0,0E0,0E0,0E0,0E0,0E0,0E0,0E0,0E0,0E0,0E0,0E0,0E0,0E0,0E0,0E0,0E0,0E0,0E0],"parents":[2147483647,0,0,1,1,2,2,3,3,4,4,5,5,6,6,7,7,8,8,9,9,10,10,11,11,12,12,15,15,16,16,17,17,19,19,20,20,22,22,23,23,24,24,28,28,29,29,30,30,31,31,32,32,33,33,34,34,35,35,37,37,38,38,41,41],"right_children":[2,4,6,8,10,12,14,16,18,20,22,24,26,-1,-1,28,30,32,-1,34,36,-1,38,40,42,-1,-1,-1,44,46,48,50,52,54,56,58,-1,60,62,-1,-1,64,-1,-1,-1,-1,-1,-1,-1,-1,-1,-1,-1,-1,-1,-1,-1,-1,-1,-1,-1,-1,-1,-1,-1],"split_conditions":[2.7613224E1,3.806995E1,7.338327E1,4.0504065E2,1.5530247E1,7.186953E1,3.4379013E2,3.6655176E2,4.0993143E2,5.1747074E1,3.4684128E2,-2.1824806E0,3.375475E2,-1.3978587E-1,3.6227727E-1,3.5493457E2,1.7956838E-1,1.9161877E1,-1.6200382E-1,3.892454E2,5.204133E0,-1.3579033E-1,4.0993143E2,-6.3093406E-1,-2.098742E0,-1.4297801E-1,2.3878296E-1,-1.6178383E-1,8.924322E0,1.3245852E0,5.8002037E-1,-4.6838627E0,2.4645048E1,3.459622E2,6.239267E-1,3.683212E2,2.4134019E-1,4.357684E1,6.559973E-1,5.9949506E-2,-1.2716146E-1,-2.2710575E-1,-1.6149227E-1,6.0965195E-2,-1.4697544E-1,6.416965E-2,3.9247844E-1,4.6777496E-1,2.4692942E-1,6.348211E-2,-1.4853086E-1,3.3334163E-1,-9.3489684E-2,-1.31726E-1,5.213652E-1,-1.493334E-1,1.8030348E-1,-3.9497525E-3,-1.6734377E-1,6.0124063E-1,4.1336107E-1,1.7502287E-1,-1.3206907E-1,6.5630205E-2,-1.2912273E-1],"split_indices":[19,18,23,0,20,23,0,0,0,18,0,14,0,0,0,0,13,18,0,0,23,0,0,11,10,0,0,0,19,16,10,23,25,0,5,0,0,20,1,0,0,6,0,0,0,0,0,0,0,0,0,0,0,0,0,0,0,0,0,0,0,0,0,0,0],"split_type":[0,0,0,0,0,0,0,0,0,0,0,0,0,0,0,0,0,0,0,0,0,0,0,0,0,0,0,0,0,0,0,0,0,0,0,0,0,0,0,0,0,0,0,0,0,0,0,0,0,0,0,0,0,0,0,0,0,0,0,0,0,0,0,0,0],"sum_hessian":[2.349209E3,1.2153806E3,1.1338284E3,7.482935E2,4.6708716E2,1.1204513E3,1.3377056E1,4.7486816E2,2.7342535E2,5.3668663E1,4.134185E2,1.1113052E3,9.146063E0,6.452976E0,6.92408E0,2.4652696E2,2.283412E2,1.2541081E1,2.6088425E2,3.4344383E1,1.932428E1,5.0501494E0,4.0836835E2,4.7612605E0,1.106544E3,7.7545915E0,1.3914714E0,1.9100621E2,5.552075E1,6.808299E1,1.6025821E2,1.0093948E1,2.4471323E0,2.071117E1,1.3633214E1,1.7762423E1,1.5618579E0,4.0282266E2,5.545687E0,1.0595483E0,3.7017121E0,4.869297E0,1.1016747E3,3.6247177E1,1.9273573E1,5.5839394E1,1.2243604E1,8.713264E1,7.312557E1,1.0316228E0,9.062326E0,1.1376193E0,1.3095131E0,4.262218E0,1.6448952E1,8.197012E0,5.436202E0,3.665302E0,1.4097119E1,4.1116535E1,3.6170612E2,1.0573522E0,4.488335E0,1.0221815E0,3.8471158E0],"tree_param":{"num_deleted":"0","num_feature":"26","num_nodes":"65","size_leaf_vector":"1"}},{"base_weights":[1.02719E-2,-2.843278E-1,9.2633295E-1,4.5794185E-2,-5.1525563E-1,-1.6010514E-1,1.3276124E0,-5.2371794E-1,3.2246923E-1,-3.4258404E-1,-5.333999E-1,4.089525E-1,-1.4504267E-1,-5.357267E-1,-2.3925231E-1,1.1002926E0,-4.8142877E-1,-5.070352E-1,6.614216E-1,-2.5585747E-1,-1.6031416E-1,-1.6199477E-1,-3.0733728E-1,-1.4617744E-1,1.952265E-1,6.730446E-1,1.296462E0,-5.115579E-1,6.2453717E-1,5.4528754E-2,-5.174984E-1,-1.4320931E-1,1.3849783E0,6.2163517E-2,-1.2412871E-1,-1.3328978E-1,6.626609E-2,4.881926E-2,3.7927702E-1,4.116179E-1,-1.5321167E-1,-1.013982E-1,-1.619026E-1,5.1724213E-1,-1.2798283E-1,-6.620755E-2,-1.5835302E-1,4.6269235E-1,3.7808925E-2],"categories":[],"categories_nodes":[],"categories_segments":[],"categories_sizes":[],"default_left":[0,0,0,0,0,0,0,0,0,0,0,0,0,0,0,0,0,0,0,0,0,0,0,0,0,0,0,0,0,0,0,0,0,0,0,0,0,0,0,0,0,0,0,0,0,0,0,0,0],"id":15,"left_children":[1,3,5,7,9,-1,11,13,15,17,19,-1,-1,21,23,25,27,29,31,33,-1,-1,35,-1,-1,37,39,41,43,-1,45,-1,47,-1,-1,-1,-1,-1,-1,-1,-1,-1,-1,-1,-1,-1,-1,-1,-1],"loss_changes":[6.4128204E2,1.3709645E2,3.3947855E2,1.1692701E2,3.132141E0,0E0,2.9890503E1,7.007828E-1,3.1275726E2,1.7408276E1,1.2338257E-1,0E0,0E0,5.9562683E-2,2.8854733E0,2.0423157E1,8.524826E0,7.3848915E-1,1.3010189E1,4.7205138E-1,0E0,0E0,5.731356E-1,0E0,0E0,2.4543732E1,2.4342834E1,9.901314E-1,8.804117E0,0E0,1.547451E-1,0E0,1.6715736E0,0E0,0E0,0E0,0E0,0E0,0E0,0E0,0E0,0E0,0E0,0E0,0E0,0E0,0E0,0E0,0E0],"parents":[2147483647,0,0,1,1,2,2,3,3,4,4,6,6,7,7,8,8,9,9,10,10,13,13,14,14,15,15,16,16,17,17,18,18,19,19,22,22,25,25,26,26,27,27,28,28,30,30,32,32],"right_children":[2,4,6,8,10,-1,12,14,16,18,20,-1,-1,22,24,26,28,30,32,34,-1,-1,36,-1,-1,38,40,42,44,-1,46,-1,48,-1,-1,-1,-1,-1,-1,-1,-1,-1,-1,-1,-1,-1,-1,-1,-1],"split_conditions":[5.9406734E1,1.4554752E1,3.7240704E2,3.7768213E2,2.0451008E1,-1.6010514E-1,3.7369938E1,3.746343E2,4.1622012E2,4.3091373E1,-2.2915561E0,4.089525E-1,-1.4504267E-1,5.770284E0,1.5041745E0,3.9226218E2,3.499008E1,-1.6037017E0,3.8841595E2,-2.928846E-1,-1.6031416E-1,-1.6199477E-1,1.2440834E0,-1.4617744E-1,1.952265E-1,5.386845E-1,3.6140053E1,4.2600378E2,4.2749585E2,5.4528754E-2,4.765583E-1,-1.4320931E-1,6.680439E0,6.2163517E-2,-1.2412871E-1,-1.3328978E-1,6.626609E-2,4.881926E-2,3.7927702E-1,4.116179E-1,-1.5321167E-1,-1.013982E-1,-1.619026E-1,5.1724213E-1,-1.2798283E-1,-6.620755E-2,-1.5835302E-1,4.6269235E-1,3.7808925E-2],"split_indices":[18,20,0,0,20,0,20,0,0,18,11,0,0,24,7,0,18,11,0,10,0,0,13,0,0,9,19,0,0,0,1,0,23,0,0,0,0,0,0,0,0,0,0,0,0,0,0,0,0],"split_type":[0,0,0,0,0,0,0,0,0,0,0,0,0,0,0,0,0,0,0,0,0,0,0,0,0,0,0,0,0,0,0,0,0,0,0,0,0,0,0,0,0,0,0,0,0,0,0,0,0],"sum_hessian":[2.3742751E3,1.7970458E3,5.772295E2,7.399931E2,1.0570527E3,1.2437457E2,4.5285492E2,2.4166116E2,4.9833194E2,1.0240334E2,9.5464935E2,4.4437643E2,8.478468E0,2.3102512E2,1.0636038E1,2.5308607E2,2.4524585E2,8.84162E1,1.3987145E1,4.2832365E0,9.503661E2,2.2545956E2,5.565553E0,8.672045E0,1.9639933E0,8.1032364E1,1.7205371E2,2.3926517E2,5.9806833E0,1.0780203E0,8.733817E1,5.566476E0,8.42067E0,1.0097637E0,3.273473E0,4.5457726E0,1.019781E0,4.4176224E1,3.6856136E1,1.6537645E2,6.6772637E0,3.5172546E1,2.0409262E2,2.6100576E0,3.3706255E0,3.693775E0,8.36444E1,7.285173E0,1.1354964E0],"tree_param":{"num_deleted":"0","num_feature":"26","num_nodes":"49","size_leaf_vector":"1"}},{"base_weights":[2.544774E-3,4.5281282E-1,-4.896689E-1,-4.364979E-2,1.2942392E0,-1.5788034E-1,-5.22579E-1,-5.305127E-1,2.643419E-1,1.3320923E0,-1.4624403E-1,-1.6005014E-1,7.8517765E-1,-4.3018913E-1,-1.6016966E-1,-5.368861E-1,-1.7145406E-1,1.0269518E0,-4.6331427E-1,-1.3723776E-1,1.3555545E0,4.2655465E-1,-4.1360825E-1,-5.155454E-1,6.429374E-2,-1.620616E-1,-6.6432185E-2,1.2046581E-1,-1.3225275E-1,1.3709041E0,6.405419E-1,-2.0227237E-3,-5.244533E-1,1.3677895E0,8.912631E-2,4.41013E-2,-1.4703822E-1,-1.604947E-1,-7.100604E-2,4.633277E-1,-1.498428E-1,-8.96021E-2,6.6909246E-2,1.0626298E-1,4.3867505E-1,3.3066404E-1,1.171369E-1,-4.3564696E-2,4.316369E-1,1.2217299E-2,-1.5869705E-1,4.126311E-1,1.2627897E-1,-1.2512356E-1,2.462018E-1,2.1318096E-1,-1.2492893E-1],"categories":[],"categories_nodes":[],"categories_segments":[],"categories_sizes":[],"default_left":[0,0,0,0,0,0,0,0,0,0,0,0,0,0,0,0,0,0,0,0,0,0,0,0,0,0,0,0,0,0,0,0,0,0,0,0,0,0,0,0,0,0,0,0,0,0,0,0,0,0,0,0,0,0,0,0,0],"id":16,"left_children":[1,3,5,7,9,11,13,15,17,19,-1,-1,21,23,-1,25,27,29,31,-1,33,-1,35,37,39,-1,41,-1,-1,43,45,47,49,51,53,-1,-1,-1,55,-1,-1,-1,-1,-1,-1,-1,-1,-1,-1,-1,-1,-1,-1,-1,-1,-1,-1],"loss_changes":[5.2448975E2,5.1634753E2,1.2262787E1,1.16841034E2,3.1582947E1,3.7066902E1,8.456116E-1,5.988159E-1,2.6537668E2,1.9488342E1,0E0,0E0,2.3388973E1,4.9870014E0,0E0,4.2658234E-1,1.2165618E0,3.0141907E1,6.9078636E0,0E0,6.755005E0,0E0,5.4980934E-1,8.27816E-1,1.5930719E1,0E0,2.8275067E-1,0E0,0E0,1.0868576E1,1.2476818E1,6.3307867E0,5.761719E-1,2.6035156E0,2.3110385E0,0E0,0E0,0E0,1.7405479E0,0E0,0E0,0E0,0E0,0E0,0E0,0E0,0E0,0E0,0E0,0E0,0E0,0E0,0E0,0E0,0E0,0E0,0E0],"parents":[2147483647,0,0,1,1,2,2,3,3,4,4,5,5,6,6,7,7,8,8,9,9,12,12,13,13,15,15,16,16,17,17,18,18,20,20,22,22,23,23,24,24,26,26,29,29,30,30,31,31,32,32,33,33,34,34,38,38],"right_children":[2,4,6,8,10,12,14,16,18,20,-1,-1,22,24,-1,26,28,30,32,-1,34,-1,36,38,40,-1,42,-1,-1,44,46,48,50,52,54,-1,-1,-1,56,-1,-1,-1,-1,-1,-1,-1,-1,-1,-1,-1,-1,-1,-1,-1,-1,-1,-1],"split_conditions":[2.62321E1,3.8974648E1,2.7853922E1,3.968525E2,4.2748833E1,6.6838745E1,2.9708109E1,3.946676E2,4.38923E2,3.768593E2,-1.4624403E-1,-1.6005014E-1,4.1444683E1,4.6605774E1,-1.6016966E-1,5.9058323E0,-1.4734658E0,3.718234E-1,4.4470264E2,-1.3723776E-1,4.4555707E2,4.2655465E-1,-3.1410924E-1,7.589184E1,4.177548E1,-1.620616E-1,9.1219825E-1,1.2046581E-1,-1.3225275E-1,4.0446417E2,-6.99952E-2,2.3004735E0,2.25922E1,2.46566E0,4.7525673E0,4.41013E-2,-1.4703822E-1,-1.604947E-1,4.2749585E2,4.633277E-1,-1.498428E-1,-8.96021E-2,6.6909246E-2,1.0626298E-1,4.3867505E-1,3.3066404E-1,1.171369E-1,-4.3564696E-2,4.316369E-1,1.2217299E-2,-1.5869705E-1,4.126311E-1,1.2627897E-1,-1.2512356E-1,2.462018E-1,2.1318096E-1,-1.2492893E-1],"split_indices":[18,19,18,0,20,19,18,0,0,0,0,0,20,23,0,2,23,17,0,0,0,0,17,19,20,0,14,0,0,0,6,14,25,17,24,0,0,0,0,0,0,0,0,0,0,0,0,0,0,0,0,0,0,0,0,0,0],"split_type":[0,0,0,0,0,0,0,0,0,0,0,0,0,0,0,0,0,0,0,0,0,0,0,0,0,0,0,0,0,0,0,0,0,0,0,0,0,0,0,0,0,0,0,0,0,0,0,0,0,0,0,0,0,0,0,0,0],"sum_hessian":[2.3645308E3,1.2349246E3,1.1296062E3,7.772661E2,4.5765836E2,1.024578E2,1.0271484E3,3.0089655E2,4.763696E2,4.4838467E2,9.273705E0,7.3583694E1,2.8874105E1,1.1636987E2,9.107785E2,2.9516208E2,5.734458E0,2.3239742E2,2.4397218E2,5.5631576E0,4.428215E2,1.8736917E1,1.0137188E1,9.920311E1,1.7166761E1,2.9294696E2,2.215117E0,1.6769238E0,4.057534E0,1.2160565E2,1.1079177E2,2.8672478E1,2.1529971E2,4.3850504E2,4.3164687E0,1.1068408E0,9.030347E0,9.4852356E1,4.350758E0,4.255315E0,1.2911447E1,1.2113826E0,1.0037344E0,1.0427198E1,1.1117845E2,3.773099E1,7.306078E1,2.6898432E1,1.7740467E0,1.6510099E0,2.136487E2,4.3454276E2,3.962292E0,2.8052204E0,1.5112482E0,1.009443E0,3.3413153E0],"tree_param":{"num_deleted":"0","num_feature":"26","num_nodes":"57","size_leaf_vector":"1"}},{"base_weights":[1.6288815E-2,-5.166937E-1,5.9695953E-1,-5.252295E-1,3.1570414E-1,9.937038E-1,-3.7674785E-1,-1.613665E-1,-2.5091243E-1,6.2702113E-1,1.3690572E0,-4.805721E-1,1.3662405E0,-2.9932836E-1,3.537034E-1,9.9067366E-1,-4.7935915E-1,4.1352245E-1,-1.6607799E-1,-2.6065996E-1,-5.1545376E-1,4.2224756E-1,1.3597934E-1,-1.6287684E-2,-1.571208E-1,3.7748894E-1,1.1943828E0,1.723381E-1,-5.248051E-1,4.1322816E-2,-1.1394312E-1,2.7367753E-1,-4.9118394E-1,-5.190382E-1,-5.615893E-3,-5.3718623E-2,3.4055772E-1,4.0336445E-1,1.760642E-2,4.4441265E-1,2.2918919E-1,-9.58876E-2,4.391365E-1,5.7039943E-2,-1.6054434E-1,-5.5172797E-2,3.1986076E-1,-1.5670224E-1,5.9170295E-2,-1.5676987E-1,-6.556539E-2],"categories":[],"categories_nodes":[],"categories_segments":[],"categories_sizes":[],"default_left":[0,0,0,0,0,0,0,0,0,0,0,0,0,0,0,0,0,0,0,0,0,0,0,0,0,0,0,0,0,0,0,0,0,0,0,0,0,0,0,0,0,0,0,0,0,0,0,0,0,0,0],"id":17,"left_children":[1,3,5,7,-1,9,11,-1,13,15,17,19,21,23,-1,25,27,-1,29,31,33,-1,-1,35,-1,37,39,41,43,-1,-1,45,47,49,-1,-1,-1,-1,-1,-1,-1,-1,-1,-1,-1,-1,-1,-1,-1,-1,-1],"loss_changes":[7.3167444E2,1.7062408E1,4.3746558E2,4.1248474E0,0E0,1.0982355E2,6.0063015E1,0E0,4.228861E0,1.6488094E2,5.9212036E0,2.2479324E0,6.687546E-2,3.4816794E0,0E0,3.800531E1,3.1042385E0,0E0,2.6616856E-1,5.620677E0,4.6572113E-1,0E0,0E0,4.95135E0,0E0,2.4040962E1,2.7357666E1,5.160745E0,8.069687E-1,0E0,0E0,5.2971215E0,7.780938E-1,1.6679382E-1,0E0,0E0,0E0,0E0,0E0,0E0,0E0,0E0,0E0,0E0,0E0,0E0,0E0,0E0,0E0,0E0,0E0],"parents":[2147483647,0,0,1,1,2,2,3,3,5,5,6,6,8,8,9,9,10,10,11,11,12,12,13,13,15,15,16,16,18,18,19,19,20,20,23,23,25,25,26,26,27,27,28,28,31,31,32,32,33,33],"right_children":[2,4,6,8,-1,10,12,-1,14,16,18,20,22,24,-1,26,28,-1,30,32,34,-1,-1,36,-1,38,40,42,44,-1,-1,46,48,50,-1,-1,-1,-1,-1,-1,-1,-1,-1,-1,-1,-1,-1,-1,-1,-1,-1],"split_conditions":[4.1897818E2,6.9800125E1,4.578418E2,4.1394113E2,3.1570414E-1,4.206055E1,4.52854E1,-1.613665E-1,4.2748833E1,1.31870165E1,3.9887405E1,4.6223358E2,4.6928827E2,5.775893E0,3.537034E-1,4.2994138E2,4.999344E0,4.1352245E-1,5.872545E0,1.4745945E1,2.948129E0,4.2224756E-1,1.3597934E-1,1.6459445E0,-1.571208E-1,-4.40421E-2,6.6854674E-1,2.812205E1,1.736209E1,4.1322816E-2,-1.1394312E-1,2.6272454E0,2.0056217E0,2.60828E0,-5.615893E-3,-5.3718623E-2,3.4055772E-1,4.0336445E-1,1.760642E-2,4.4441265E-1,2.2918919E-1,-9.58876E-2,4.391365E-1,5.7039943E-2,-1.6054434E-1,-5.5172797E-2,3.1986076E-1,-1.5670224E-1,5.9170295E-2,-1.5676987E-1,-6.556539E-2],"split_indices":[0,21,0,0,0,20,19,0,20,23,18,0,0,23,0,0,24,0,2,18,17,0,0,17,0,14,15,18,21,0,0,20,6,6,0,0,0,0,0,0,0,0,0,0,0,0,0,0,0,0,0],"split_type":[0,0,0,0,0,0,0,0,0,0,0,0,0,0,0,0,0,0,0,0,0,0,0,0,0,0,0,0,0,0,0,0,0,0,0,0,0,0,0,0,0,0,0,0,0,0,0,0,0,0,0],"sum_hessian":[2.3621528E3,1.2317092E3,1.1304436E3,1.2257064E3,6.0027585E0,8.031669E2,3.272768E2,1.1707207E3,5.498569E1,4.0762674E2,3.955401E2,3.095615E2,1.771531E1,5.394967E1,1.0360188E0,3.0686792E2,1.0075884E2,3.9324683E2,2.2932642E0,4.3539364E1,2.6602213E2,1.6431238E1,1.2840707E0,2.4332354E1,2.9617315E1,7.7235245E1,2.2963266E2,6.386337E0,9.4372505E1,1.0938675E0,1.1993966E0,1.3066044E1,3.0473322E1,2.640717E2,1.9504268E0,2.205862E1,2.2737346E0,1.8351078E1,5.888417E1,1.363057E2,9.3326965E1,5.1695585E0,1.2167785E0,1.0978833E0,9.327462E1,8.770241E0,4.2958026E0,2.9384657E1,1.0886645E0,2.6027673E2,3.7949665E0],"tree_param":{"num_deleted":"0","num_feature":"26","num_nodes":"51","size_leaf_vector":"1"}},{"base_weights":[1.2080163E-2,-5.0809145E-1,8.372413E-1,-5.332229E-1,1.4849515E-2,1.1616085E0,-5.299165E-1,-5.3464055E-1,1.3141795E-1,5.121047E-1,-1.5680891E-1,1.2269655E0,-4.698262E-2,4.503823E-2,-1.6063507E-1,-1.614345E-1,-3.7182358E-1,-2.0728303E-2,1.3525797E0,9.7558546E-1,1.376342E0,-2.6198688E-1,1.04091E0,1.523158E-1,-4.2798913E-1,5.8585846E-1,-3.3945704E-1,5.977795E-1,4.424324E-1,1.0295342E0,-2.6494575E-1,1.3981858E0,-1.4476405E-1,-3.6582384E-1,5.974257E-1,3.527539E-2,3.7492085E-1,-1.4660858E-1,1.0254548E-1,3.555742E-1,-1.2236323E-1,-1.5759139E-1,1.8005845E-1,1.7900873E-2,2.618471E-1,3.4424978E-1,1.4265768E-1,2.0148948E-1,-1.2573563E-1,4.2443457E-1,-1.2957405E-1,-1.272796E-1,1.1463577E-1,3.9111814E-1,-9.87526E-2],"categories":[],"categories_nodes":[],"categories_segments":[],"categories_sizes":[],"default_left":[0,0,0,0,0,0,0,0,0,0,0,0,0,0,0,0,0,0,0,0,0,0,0,0,0,0,0,0,0,0,0,0,0,0,0,0,0,0,0,0,0,0,0,0,0,0,0,0,0,0,0,0,0,0,0],"id":18,"left_children":[1,3,5,7,9,11,13,15,-1,17,-1,19,21,-1,-1,-1,23,25,27,29,31,33,35,-1,37,39,41,43,-1,45,47,49,-1,51,53,-1,-1,-1,-1,-1,-1,-1,-1,-1,-1,-1,-1,-1,-1,-1,-1,-1,-1,-1,-1],"loss_changes":[1.0188762E3,1.9142548E1,4.076264E2,2.1470337E0,1.8373053E1,5.8677612E1,7.452774E-1,5.8483887E-1,0E0,1.6011745E1,0E0,2.5095825E1,9.403266E0,0E0,0E0,0E0,1.809402E0,4.612405E0,3.970337E-1,1.8066284E1,1.8508972E1,3.1985142E0,1.1338763E0,0E0,1.6081142E0,5.3855824E0,3.0392108E0,4.8268783E-1,0E0,1.6119232E1,1.9962981E0,1.3803833E1,0E0,1.4915257E0,3.0335846E0,0E0,0E0,0E0,0E0,0E0,0E0,0E0,0E0,0E0,0E0,0E0,0E0,0E0,0E0,0E0,0E0,0E0,0E0,0E0,0E0],"parents":[2147483647,0,0,1,1,2,2,3,3,4,4,5,5,6,6,7,7,9,9,11,11,12,12,16,16,17,17,18,18,19,19,20,20,21,21,22,22,24,24,25,25,26,26,27,27,29,29,30,30,31,31,33,33,34,34],"right_children":[2,4,6,8,10,12,14,16,-1,18,-1,20,22,-1,-1,-1,24,26,28,30,32,34,36,-1,38,40,42,44,-1,46,48,50,-1,52,54,-1,-1,-1,-1,-1,-1,-1,-1,-1,-1,-1,-1,-1,-1,-1,-1,-1,-1,-1,-1],"split_conditions":[4.415841E2,4.3639072E2,3.0713661E1,6.272197E0,3.82819E1,4.820728E2,3.127054E1,4.331775E2,1.3141795E-1,8.082E0,-1.5680891E-1,6.7430987E0,5.571178E0,4.503823E-2,-1.6063507E-1,-1.614345E-1,-1.5074811E0,2.6829046E-1,-2.0829856E-1,2.6051458E1,4.1827522E1,1.7445513E0,2.3822685E1,1.523158E-1,2.2603657E0,6.615646E-1,5.977439E0,9.954674E-1,4.424324E-1,1.4504194E0,-1.4824017E0,3.4104916E1,-1.4476405E-1,1.8969125E0,5.549293E-1,3.527539E-2,3.7492085E-1,-1.4660858E-1,1.0254548E-1,3.555742E-1,-1.2236323E-1,-1.5759139E-1,1.8005845E-1,1.7900873E-2,2.618471E-1,3.4424978E-1,1.4265768E-1,2.0148948E-1,-1.2573563E-1,4.2443457E-1,-1.2957405E-1,-1.272796E-1,1.1463577E-1,3.9111814E-1,-9.87526E-2],"split_indices":[0,0,20,2,19,0,20,0,0,22,0,21,23,0,0,0,6,7,4,18,19,13,19,0,9,6,2,17,0,7,3,18,0,12,22,0,0,0,0,0,0,0,0,0,0,0,0,0,0,0,0,0,0,0,0],"split_type":[0,0,0,0,0,0,0,0,0,0,0,0,0,0,0,0,0,0,0,0,0,0,0,0,0,0,0,0,0,0,0,0,0,0,0,0,0,0,0,0,0,0,0,0,0,0,0,0,0,0,0,0,0,0,0],"sum_hessian":[2.3717646E3,1.4549597E3,9.168048E2,1.3882249E3,6.673494E1,7.411196E2,1.7568518E2,1.3866505E3,1.5743037E0,3.4691242E1,3.2043697E1,7.0308374E2,3.803591E1,1.207146E0,1.7447804E2,1.3554218E3,3.122881E1,2.182822E1,1.2863021E1,2.6487192E2,4.3821182E2,3.239312E1,5.642793E0,1.3919181E0,2.9836891E1,7.23013E0,1.459809E1,2.6132064E0,1.0249815E1,2.5399612E2,1.0875795E1,4.3336716E2,4.8446608E0,2.9413607E1,2.9795125E0,1.3291267E0,4.3136663E0,2.7994455E1,1.8424371E0,4.3896933E0,2.8404372E0,1.2555733E1,2.0423577E0,1.2955244E0,1.3176819E0,2.085239E2,4.5472233E1,1.0628424E0,9.812953E0,4.2969745E2,3.6696966E0,2.7683296E1,1.7303116E0,1.4597893E0,1.5197233E0],"tree_param":{"num_deleted":"0","num_feature":"26","num_nodes":"55","size_leaf_vector":"1"}},{"base_weights":[-6.4451336E-3,-5.040822E-1,1.2080735E0,-5.3120834E-1,7.0030354E-2,1.282321E0,-4.3043384E-1,-5.383961E-1,-3.6856943E-1,-2.3643924E-1,1.3433213E0,1.0906134E0,4.1285157E-1,-1.5662286E-1,3.0299532E-1,-5.390534E-1,-2.9125583E-1,-4.7413552E-1,4.7707435E-1,2.6743472E-1,-4.8366714E-1,4.7758505E-1,-1.1249042E-1,1.2289959E0,-2.517697E-1,-3.436364E-1,-1.6190892E-1,-1.3025331E-1,6.387515E-2,2.6776713E-1,-5.019031E-1,1.059404E0,-1.736592E-1,-1.5885468E-1,1.1216289E-2,8.3540857E-1,1.3680184E0,5.903714E-1,-1.5372811E-1,6.809701E-2,-1.3865209E-1,-8.622955E-2,2.1054807E-1,4.7905408E-2,-1.5496814E-1,8.3570205E-2,6.1073214E-1,-1.0395562E-1,1.5670411E-1,-1.1602751E-1,2.1073575E-1,1.4165576E-1,3.590798E-1,4.1883728E-1,6.959512E-3,-4.8316E-2,4.066757E-1],"categories":[],"categories_nodes":[],"categories_segments":[],"categories_sizes":[],"default_left":[0,0,0,0,0,0,0,0,0,0,0,0,0,0,0,0,0,0,0,0,0,0,0,0,0,0,0,0,0,0,0,0,0,0,0,0,0,0,0,0,0,0,0,0,0,0,0,0,0,0,0,0,0,0,0,0,0],"id":19,"left_children":[1,3,5,7,9,11,13,15,17,19,21,23,-1,-1,-1,25,27,29,-1,31,33,-1,-1,35,37,39,-1,-1,-1,41,43,45,47,-1,49,51,53,55,-1,-1,-1,-1,-1,-1,-1,-1,-1,-1,-1,-1,-1,-1,-1,-1,-1,-1,-1],"loss_changes":[1.4283301E3,2.6144073E1,8.4114624E1,1.6729431E0,3.0176273E1,1.0326172E1,4.5566683E0,9.170532E-2,1.5420212E1,7.917925E0,7.002472E0,4.133777E1,0E0,0E0,0E0,6.286621E-3,5.417887E-1,1.5366611E0,0E0,7.598063E0,9.656935E-1,0E0,0E0,9.822205E0,5.0155206E0,6.2958354E-1,0E0,0E0,0E0,9.506809E-1,7.2211456E-1,5.3284054E0,1.9243848E0,0E0,1.5277047E0,6.640747E0,5.5055847E0,3.4034982E0,0E0,0E0,0E0,0E0,0E0,0E0,0E0,0E0,0E0,0E0,0E0,0E0,0E0,0E0,0E0,0E0,0E0,0E0,0E0],"parents":[2147483647,0,0,1,1,2,2,3,3,4,4,5,5,6,6,7,7,8,8,9,9,10,10,11,11,15,15,16,16,17,17,19,19,20,20,23,23,24,24,25,25,29,29,30,30,31,31,32,32,34,34,35,35,36,36,37,37],"right_children":[2,4,6,8,10,12,14,16,18,20,22,24,-1,-1,-1,26,28,30,-1,32,34,-1,-1,36,38,40,-1,-1,-1,42,44,46,48,-1,50,52,54,56,-1,-1,-1,-1,-1,-1,-1,-1,-1,-1,-1,-1,-1,-1,-1,-1,-1,-1,-1],"split_conditions":[4.6386972E2,4.578418E2,3.586862E1,4.508192E2,3.2004223E1,3.1249666E1,3.770954E1,8.200023E1,3.806995E1,4.266874E0,4.1465996E1,1.1163187E1,4.1285157E-1,-1.5662286E-1,3.0299532E-1,-6.161944E0,5.638557E0,-2.3785634E0,4.7707435E-1,3.5515693E-1,2.9925957E1,4.7758505E-1,-1.1249042E-1,-2.2610059E-2,2.7087688E0,-5.4648834E-1,-1.6190892E-1,-1.3025331E-1,6.387515E-2,3.220148E-1,-4.3231344E0,9.142699E-1,6.0675907E0,-1.5885468E-1,5.891733E0,4.762228E2,2.5687296E0,1.8472006E1,-1.5372811E-1,6.809701E-2,-1.3865209E-1,-8.622955E-2,2.1054807E-1,4.7905408E-2,-1.5496814E-1,8.3570205E-2,6.1073214E-1,-1.0395562E-1,1.5670411E-1,-1.1602751E-1,2.1073575E-1,1.4165576E-1,3.590798E-1,4.1883728E-1,6.959512E-3,-4.8316E-2,4.066757E-1],"split_indices":[0,0,21,0,18,18,18,24,18,21,19,21,0,0,0,24,2,21,0,10,18,0,0,7,23,17,0,0,0,11,23,7,2,0,2,0,10,20,0,0,0,0,0,0,0,0,0,0,0,0,0,0,0,0,0,0,0],"split_type":[0,0,0,0,0,0,0,0,0,0,0,0,0,0,0,0,0,0,0,0,0,0,0,0,0,0,0,0,0,0,0,0,0,0,0,0,0,0,0,0,0,0,0,0,0,0,0,0,0,0,0,0,0,0,0,0,0],"sum_hessian":[2.3612534E3,1.6753713E3,6.85882E2,1.5998549E3,7.5516525E1,6.563572E2,2.9524834E1,1.5299298E3,6.992508E1,6.1522842E1,1.3993682E1,2.1986449E2,4.3649268E2,2.835818E1,1.1666534E0,1.5246938E3,5.2359324E0,6.706851E1,2.8565602E0,2.0223564E1,4.129928E1,1.228904E1,1.7046423E0,1.9939397E2,2.0470514E1,6.7568192E0,1.517937E3,4.1876564E0,1.0482761E0,2.1078265E0,6.4960686E1,6.7329726E0,1.3490591E1,3.7733482E1,3.565796E0,5.3875595E1,1.4551837E2,4.53943E0,1.5931086E1,1.0048146E0,5.7520046E0,1.0730767E0,1.0347497E0,1.193538E0,6.376715E1,4.455258E0,2.2777145E0,1.1208893E1,2.2816982E0,2.5424693E0,1.0233268E0,2.802501E1,2.5850588E1,1.4250203E2,3.0163465E0,2.6887066E0,1.8507234E0],"tree_param":{"num_deleted":"0","num_feature":"26","num_nodes":"57","size_leaf_vector":"1"}},{"base_weights":[-2.0474419E-2,8.2334244E-1,-5.207448E-1,9.282913E-1,-1.5642479E-1,-3.0203038E-1,-5.2965486E-1,9.346828E-1,-1.2747136E-1,-4.424779E-1,3.413853E-1,-4.046166E-1,-1.5936244E-1,7.481559E-1,9.885057E-1,2.411982E-1,-4.792976E-1,-4.5093092E-1,6.4481646E-2,8.553304E-1,1.647146E-1,2.1277256E-1,9.918777E-1,-9.089746E-2,2.1482803E-1,-4.9915168E-1,5.1557723E-2,-1.5060514E-1,4.7444206E-2,2.9215768E-1,1.1015769E-1,3.24249E-1,3.0403815E-3,2.1898146E-1,-1.2973219E-1,2.9807717E-1,2.0930393E-2,-1.559568E-1,-4.7295537E-2],"categories":[],"categories_nodes":[],"categories_segments":[],"categories_sizes":[],"default_left":[0,0,0,0,0,0,0,0,0,0,0,0,0,0,0,0,0,0,0,0,0,0,0,0,0,0,0,0,0,0,0,0,0,0,0,0,0,0,0],"id":20,"left_children":[1,3,5,7,-1,9,11,13,-1,15,-1,17,-1,19,21,23,25,27,-1,29,31,33,35,-1,-1,37,-1,-1,-1,-1,-1,-1,-1,-1,-1,-1,-1,-1,-1],"loss_changes":[8.856799E2,1.1069592E2,2.4068604E0,6.6654053E0,0E0,1.140132E1,3.060913E-2,6.505493E0,0E0,1.3696222E0,0E0,6.624348E-1,0E0,1.0221367E1,1.2457275E0,1.0468037E0,7.0123196E-1,6.600127E-1,0E0,7.7287445E0,3.8063016E0,1.5447634E0,8.060913E-1,0E0,0E0,2.4649048E-1,0E0,0E0,0E0,0E0,0E0,0E0,0E0,0E0,0E0,0E0,0E0,0E0,0E0],"parents":[2147483647,0,0,1,1,2,2,3,3,5,5,6,6,7,7,9,9,11,11,13,13,14,14,15,15,16,16,17,17,19,19,20,20,21,21,22,22,25,25],"right_children":[2,4,6,8,-1,10,12,14,-1,16,-1,18,-1,20,22,24,26,28,-1,30,32,34,36,-1,-1,38,-1,-1,-1,-1,-1,-1,-1,-1,-1,-1,-1,-1,-1],"split_conditions":[3.2079382E2,5.2442482E1,3.2753964E2,3.713581E1,-1.5642479E-1,6.486354E1,3.3011862E2,3.8749614E0,-1.2747136E-1,-2.236523E0,3.413853E-1,2.671755E1,-1.5936244E-1,3.1397916E2,-3.9868457E0,7.35219E-1,2.3949907E0,5.1875553E1,6.4481646E-2,1.2708166E0,-2.5348442E0,4.9561687E0,3.1946285E1,-9.089746E-2,2.1482803E-1,5.7980366E1,5.1557723E-2,-1.5060514E-1,4.7444206E-2,2.9215768E-1,1.1015769E-1,3.24249E-1,3.0403815E-3,2.1898146E-1,-1.2973219E-1,2.9807717E-1,2.0930393E-2,-1.559568E-1,-4.7295537E-2],"split_indices":[0,18,0,22,0,19,0,21,0,20,0,25,0,0,22,12,9,21,0,10,20,2,24,0,0,19,0,0,0,0,0,0,0,0,0,0,0,0,0],"split_type":[0,0,0,0,0,0,0,0,0,0,0,0,0,0,0,0,0,0,0,0,0,0,0,0,0,0,0,0,0,0,0,0,0,0,0,0,0,0,0],"sum_hessian":[2.0960725E3,7.7991956E2,1.316153E3,7.2374603E2,5.6173565E1,5.2885017E1,1.263268E3,7.206515E2,3.094518E0,4.881646E1,4.0685577E0,1.8708178E1,1.2445597E3,1.6471643E2,5.5593506E2,2.2110176E0,4.6605442E1,1.7660177E1,1.0480005E0,1.3876091E2,2.5955523E1,2.6834724E0,5.532516E2,1.199022E0,1.0119956E0,4.5453E1,1.1524447E0,1.6455734E1,1.2044427E0,1.10849625E2,2.791128E1,2.882197E0,2.3073326E1,1.4166526E0,1.2668197E0,5.5214844E2,1.103182E0,4.2362396E1,3.0906026E0],"tree_param":{"num_deleted":"0","num_feature":"26","num_nodes":"39","size_leaf_vector":"1"}},{"base_weights":[-9.39549E-3,6.1468923E-1,-5.106538E-1,8.1203353E-1,-1.580036E-1,-1.7779936E-1,-5.257972E-1,4.7594404E-1,1.002919E0,-3.9268464E-1,1.0609703E0,1.384646E-1,-5.2752894E-1,5.859396E-1,-4.567975E-1,1.0041636E0,6.0207676E-2,1.8107727E-1,-4.5394763E-1,3.5947865E-1,3.5537563E-2,-5.292572E-1,-3.1386724E-1,-2.9791778E-1,6.690967E-1,-4.8686534E-1,6.2228553E-2,3.752907E-1,2.9795364E-1,1.4603549E-1,-4.9769706E-1,-2.6600283E-1,-1.5904246E-1,2.058336E-1,-1.4398094E-1,-1.1148488E-1,1.2781742E-1,2.339762E-1,2.3697477E-2,6.292783E-3,-1.5555997E-1,6.532164E-2,-1.5628386E-1,-1.2609638E-1,6.398483E-2],"categories":[],"categories_nodes":[],"categories_segments":[],"categories_sizes":[],"default_left":[0,0,0,0,0,0,0,0,0,0,0,0,0,0,0,0,0,0,0,0,0,0,0,0,0,0,0,0,0,0,0,0,0,0,0,0,0,0,0,0,0,0,0,0,0],"id":21,"left_children":[1,3,5,7,-1,9,11,13,15,17,19,-1,21,23,25,27,-1,-1,29,-1,-1,31,33,35,37,39,-1,-1,-1,-1,41,43,-1,-1,-1,-1,-1,-1,-1,-1,-1,-1,-1,-1,-1],"loss_changes":[6.591936E2,2.1184369E2,5.7968445E0,5.0887695E1,0E0,1.4355305E1,2.1537476E0,3.0217827E1,3.0743408E-1,3.0420718E0,8.946266E-1,0E0,2.4588013E-1,1.9424019E1,7.27221E-1,1.3671875E-1,0E0,0E0,2.0241766E0,0E0,0E0,1.1633301E-1,2.2240648E0,1.3953724E0,1.5593246E1,4.9811363E-1,0E0,0E0,0E0,0E0,8.0980206E-1,5.1180947E-1,0E0,0E0,0E0,0E0,0E0,0E0,0E0,0E0,0E0,0E0,0E0,0E0,0E0],"parents":[2147483647,0,0,1,1,2,2,3,3,5,5,6,6,7,7,8,8,9,9,10,10,12,12,13,13,14,14,15,15,18,18,21,21,22,22,23,23,24,24,25,25,30,30,31,31],"right_children":[2,4,6,8,-1,10,12,14,16,18,20,-1,22,24,26,28,-1,-1,30,-1,-1,32,34,36,38,40,-1,-1,-1,-1,42,44,-1,-1,-1,-1,-1,-1,-1,-1,-1,-1,-1,-1,-1],"split_conditions":[3.413817E2,2.9474483E1,3.4684128E2,4.41645E1,-1.580036E-1,3.6304485E1,3.5886705E-1,8.900497E0,6.6838745E1,-1.7535157E0,3.6091595E1,1.384646E-1,7.202511E1,2.9934735E2,2.0796492E0,4.9833294E1,6.0207676E-2,1.8107727E-1,-1.9415623E0,3.5947865E-1,3.5537563E-2,4.2882034E-1,3.246532E1,2.264672E0,3.325396E2,-1.1241827E0,6.2228553E-2,3.752907E-1,2.9795364E-1,1.4603549E-1,-3.6354847E0,1.5496782E0,-1.5904246E-1,2.058336E-1,-1.4398094E-1,-1.1148488E-1,1.2781742E-1,2.339762E-1,2.3697477E-2,6.292783E-3,-1.5555997E-1,6.532164E-2,-1.5628386E-1,-1.2609638E-1,6.398483E-2],"split_indices":[0,21,0,18,0,18,1,21,19,21,24,0,18,0,17,18,0,0,20,0,0,1,22,14,0,14,0,0,0,0,22,9,0,0,0,0,0,0,0,0,0,0,0,0,0],"split_type":[0,0,0,0,0,0,0,0,0,0,0,0,0,0,0,0,0,0,0,0,0,0,0,0,0,0,0,0,0,0,0,0,0,0,0,0,0,0,0,0,0,0,0,0,0],"sum_hessian":[2.1052068E3,9.376154E2,1.1675913E3,7.9964417E2,1.379712E2,5.1362984E1,1.1162284E3,2.9091943E2,5.0872473E2,4.4352337E1,7.0106487E0,1.4894664E0,1.1147389E3,2.6056372E2,3.0355726E1,5.0768536E2,1.0393935E0,2.0565019E0,4.2295834E1,5.882429E0,1.1282196E0,1.1043291E3,1.0409787E1,2.2184734E1,2.3837898E2,2.9296564E1,1.0591626E0,1.682336E1,4.90862E2,1.4295665E0,4.086627E1,4.7077794E0,1.0996213E3,1.0365797E0,9.373208E0,2.0576782E1,1.6079506E0,2.0041805E2,3.7960934E1,1.7394551E0,2.755711E1,1.0229189E0,3.984335E1,3.6542306E0,1.0535487E0],"tree_param":{"num_deleted":"0","num_feature":"26","num_nodes":"45","size_leaf_vector":"1"}},{"base_weights":[-3.7967274E-3,4.4950917E-1,-5.156856E-1,6.9784516E-1,-5.148193E-1,-2.7589038E-1,-1.5894125E-1,-4.2196423E-1,7.7234817E-1,-5.2311885E-1,9.942539E-2,-3.5897014E-1,5.647368E-1,-4.8890033E-1,3.695327E-1,8.0718374E-1,-1.5357047E-1,-1.5819821E-1,-5.258968E-4,2.8314966E-1,-4.2284542E-1,3.9464176E-1,-1.11498415E-1,8.3400056E-2,-1.5723413E-1,5.6551003E-1,9.962739E-1,-1.9595444E-1,3.531468E-1,2.2731405E-1,-4.5948142E-1,-1.09145336E-1,2.1657543E-1,1.9289707E-1,-1.7161225E-1,3.0315477E-1,-1.3353524E-1,6.753294E-2,-1.1659568E-1,-9.156872E-2,2.1297047E-1,6.361248E-2,-1.4389455E-1],"categories":[],"categories_nodes":[],"categories_segments":[],"categories_sizes":[],"default_left":[0,0,0,0,0,0,0,0,0,0,0,0,0,0,0,0,0,0,0,0,0,0,0,0,0,0,0,0,0,0,0,0,0,0,0,0,0,0,0,0,0,0,0],"id":22,"left_children":[1,3,5,7,9,11,-1,13,15,17,-1,19,21,23,-1,25,-1,-1,-1,27,29,-1,-1,31,-1,33,35,37,-1,39,41,-1,-1,-1,-1,-1,-1,-1,-1,-1,-1,-1,-1],"loss_changes":[4.946578E2,2.7110703E2,3.2433777E0,7.536838E1,1.8035088E0,4.2363367E0,0E0,6.88496E0,3.815912E1,5.0424576E-1,0E0,2.3006296E0,4.413882E0,1.1574535E0,0E0,3.699243E1,0E0,0E0,0E0,2.5477831E0,1.2659407E0,0E0,0E0,1.42374E0,0E0,3.2367462E1,9.887817E0,4.42832E-1,0E0,1.0571184E0,7.3133755E-1,0E0,0E0,0E0,0E0,0E0,0E0,0E0,0E0,0E0,0E0,0E0,0E0],"parents":[2147483647,0,0,1,1,2,2,3,3,4,4,5,5,7,7,8,8,9,9,11,11,12,12,13,13,15,15,19,19,20,20,23,23,25,25,26,26,27,27,29,29,30,30],"right_children":[2,4,6,8,10,12,-1,14,16,18,-1,20,22,24,-1,26,-1,-1,-1,28,30,-1,-1,32,-1,34,36,38,-1,40,42,-1,-1,-1,-1,-1,-1,-1,-1,-1,-1,-1,-1],"split_conditions":[3.623081E2,3.766862E1,3.692286E2,3.1397916E2,5.5804424E1,5.0161346E1,-1.5894125E-1,1.4292994E1,5.4461594E1,3.0656688E0,9.942539E-2,-8.272608E-1,3.3798622E1,-1.0715959E0,3.695327E-1,1.3377166E1,-1.5357047E-1,-1.5819821E-1,-5.258968E-4,1.8434341E0,-1.1241827E0,3.9464176E-1,-1.11498415E-1,9.3735975E-1,-1.5723413E-1,3.2824112E1,4.117822E1,8.780122E-1,3.531468E-1,-1.3492879E0,-3.4575844E0,-1.09145336E-1,2.1657543E-1,1.9289707E-1,-1.7161225E-1,3.0315477E-1,-1.3353524E-1,6.753294E-2,-1.1659568E-1,-9.156872E-2,2.1297047E-1,6.361248E-2,-1.4389455E-1],"split_indices":[0,19,0,0,24,21,0,23,22,10,0,15,19,14,0,21,0,0,0,7,14,0,0,17,0,18,18,24,0,14,24,0,0,0,0,0,0,0,0,0,0,0,0],"split_type":[0,0,0,0,0,0,0,0,0,0,0,0,0,0,0,0,0,0,0,0,0,0,0,0,0,0,0,0,0,0,0,0,0,0,0,0,0,0,0,0,0,0,0],"sum_hessian":[2.1297583E3,1.1295771E3,1.000181E3,8.9847595E2,2.3110118E2,5.67558E1,9.4342523E2,5.5757328E1,8.427186E2,2.2923477E2,1.8664118E0,5.2172527E1,4.5832734E0,5.4265278E1,1.4920517E0,8.20825E2,2.1893606E1,2.2738785E2,1.8469297E0,4.4097476E0,4.776278E1,2.3191369E0,2.2641363E0,3.06607E0,5.1199207E1,3.62065E2,4.5876E2,3.3794763E0,1.0302713E0,2.270195E0,4.5492584E1,2.056155E0,1.0099152E0,3.3938388E2,2.2681133E1,4.545675E2,4.1924915E0,1.0082176E0,2.3712587E0,1.253953E0,1.016242E0,1.04899E0,4.4443592E1],"tree_param":{"num_deleted":"0","num_feature":"26","num_nodes":"43","size_leaf_vector":"1"}},{"base_weights":[9.229725E-3,3.404747E-1,-5.1177925E-1,-4.7651386E-1,6.543481E-1,-1.7915122E-1,-5.233893E-1,-5.1667076E-1,-2.1561529E-1,7.678682E-1,-1.5789564E-1,-3.3404908E-1,2.8644258E-1,-4.4232455E-1,-5.2935046E-1,-1.778806E-1,-5.226648E-1,-3.5964113E-1,4.4113576E-1,6.01588E-1,1.0438367E0,-4.0220216E-1,2.1278442E-1,-4.8917603E-1,2.2937655E-1,-2.597031E-1,-1.5919924E-1,-1.3283244E-1,1.9522259E-1,-6.5915115E-2,-1.57733E-1,-4.4006526E-1,1.4220001E-1,-1.2933025E-1,1.1675416E0,7.143742E-1,-5.035935E-1,4.4296563E-1,1.0465492E0,-2.4394939E-2,-1.5233968E-1,-5.0527763E-1,6.789399E-2,6.8034194E-2,-1.2500754E-1,-8.963637E-2,6.808759E-2,6.2597394E-2,-1.3966797E-1,-1.198671E-1,1.9561641E-1,-8.366598E-2,4.7711203E-1,4.9451847E-2,2.5064301E-1,-1.683734E-1,-1.9895472E-2,3.3875447E-2,1.6868138E-1,3.9131063E-1,3.0848655E-1,1.3995242E-1,-1.2287494E-1,-1.5655911E-1,1.8437155E-2],"categories":[],"categories_nodes":[],"categories_segments":[],"categories_sizes":[],"default_left":[0,0,0,0,0,0,0,0,0,0,0,0,0,0,0,0,0,0,0,0,0,0,0,0,0,0,0,0,0,0,0,0,0,0,0,0,0,0,0,0,0,0,0,0,0,0,0,0,0,0,0,0,0,0,0,0,0,0,0,0,0,0,0,0,0],"id":23,"left_children":[1,3,5,7,9,11,13,15,17,19,-1,21,-1,23,25,27,29,31,33,35,37,39,-1,41,-1,43,-1,-1,-1,45,-1,47,49,-1,51,53,55,57,59,61,-1,63,-1,-1,-1,-1,-1,-1,-1,-1,-1,-1,-1,-1,-1,-1,-1,-1,-1,-1,-1,-1,-1,-1,-1],"loss_changes":[3.708121E2,3.3713385E2,3.1312408E0,3.7141724E0,1.2764578E2,5.5332155E0,1.5559387E-1,5.48172E-1,4.927985E0,3.9133636E1,0E0,2.1951137E0,0E0,3.8415146E0,1.2644958E-1,1.8256462E0,4.0555573E-1,1.7538185E0,6.5338E0,6.805179E1,6.5216064E-2,1.0189123E0,0E0,8.014412E-1,0E0,5.2031255E-1,0E0,0E0,0E0,2.8873178E-1,0E0,6.985011E-1,2.0680025E0,0E0,3.7844949E0,3.2683777E1,1.2453079E0,6.2194467E-2,1.7578125E-1,1.4574647E0,0E0,5.8325195E-1,0E0,0E0,0E0,0E0,0E0,0E0,0E0,0E0,0E0,0E0,0E0,0E0,0E0,0E0,0E0,0E0,0E0,0E0,0E0,0E0,0E0,0E0,0E0],"parents":[2147483647,0,0,1,1,2,2,3,3,4,4,5,5,6,6,7,7,8,8,9,9,11,11,13,13,14,14,15,15,16,16,17,17,18,18,19,19,20,20,21,21,23,23,25,25,29,29,31,31,32,32,34,34,35,35,36,36,37,37,38,38,39,39,41,41],"right_children":[2,4,6,8,10,12,14,16,18,20,-1,22,-1,24,26,28,30,32,34,36,38,40,-1,42,-1,44,-1,-1,-1,46,-1,48,50,-1,52,54,56,58,60,62,-1,64,-1,-1,-1,-1,-1,-1,-1,-1,-1,-1,-1,-1,-1,-1,-1,-1,-1,-1,-1,-1,-1,-1,-1],"split_conditions":[3.836424E2,3.3835345E2,3.870534E2,3.325396E2,3.7265343E1,5.4461594E1,3.946676E2,-1.908344E0,1.4452809E0,5.1598835E1,-1.5789564E-1,2.5087135E0,2.8644258E-1,5.267719E1,5.380952E-1,1.2211488E0,-2.098742E0,1.4857234E0,4.2695463E-1,2.7582312E1,3.0979246E1,9.063013E-2,2.1278442E-1,2.4065068E0,2.2937655E-1,-4.4234118E-1,-1.5919924E-1,-1.3283244E-1,1.9522259E-1,1.904858E1,-1.57733E-1,2.3478458E1,8.9079326E-1,-1.2933025E-1,5.424266E-1,-3.3950204E-1,3.5624443E1,2.165181E-1,3.3187748E1,2.812205E1,-1.5233968E-1,2.3308904E0,6.789399E-2,6.8034194E-2,-1.2500754E-1,-8.963637E-2,6.808759E-2,6.2597394E-2,-1.3966797E-1,-1.198671E-1,1.9561641E-1,-8.366598E-2,4.7711203E-1,4.9451847E-2,2.5064301E-1,-1.683734E-1,-1.9895472E-2,3.3875447E-2,1.6868138E-1,3.9131063E-1,3.0848655E-1,1.3995242E-1,-1.2287494E-1,-1.5655911E-1,1.8437155E-2],"split_indices":[0,0,0,0,18,22,0,8,6,22,0,12,0,22,1,14,10,14,3,23,19,4,0,3,0,8,0,0,0,21,0,25,15,0,1,3,19,8,19,18,0,12,0,0,0,0,0,0,0,0,0,0,0,0,0,0,0,0,0,0,0,0,0,0,0],"split_type":[0,0,0,0,0,0,0,0,0,0,0,0,0,0,0,0,0,0,0,0,0,0,0,0,0,0,0,0,0,0,0,0,0,0,0,0,0,0,0,0,0,0,0,0,0,0,0,0,0,0,0,0,0,0,0,0,0,0,0,0,0,0,0,0,0],"sum_hessian":[2.1466091E3,1.3124999E3,8.3410925E2,3.6414362E2,9.4835626E2,2.8685875E1,8.054234E2,3.1472202E2,4.9421593E1,8.654898E2,8.2866455E1,2.5858976E1,2.8268983E0,6.0322044E1,7.451013E2,6.0047064E0,3.0871732E2,4.0903767E1,8.517823E0,5.420603E2,3.2342947E2,2.4850199E1,1.0087782E0,5.8640354E1,1.6816875E0,4.575506E0,7.405258E2,4.9029727E0,1.1017334E0,2.239175E0,3.0647815E2,3.536012E1,5.5436497E0,4.0551295E0,4.462694E0,4.9218533E2,4.9874973E1,2.1918783E0,3.2123758E2,5.6972904E0,1.9152908E1,5.763707E1,1.0032848E0,1.0078298E0,3.5676765E0,1.2361116E0,1.0030633E0,1.0654254E0,3.4294693E1,2.7926216E0,2.751028E0,1.08648E0,3.376214E0,8.93043E1,4.0288104E2,4.381484E1,6.060137E0,1.0987508E0,1.0931274E0,1.6589106E1,3.046485E2,2.4120882E0,3.2852023E0,5.6075153E1,1.5619178E0],"tree_param":{"num_deleted":"0","num_feature":"26","num_nodes":"65","size_leaf_vector":"1"}},{"base_weights":[-5.4298122E-3,3.734851E-1,-5.12075E-1,-2.2446452E-2,9.194602E-1,-5.247818E-1,3.5785732E-1,2.2074358E-1,-4.9252525E-1,2.7700904E-1,9.921823E-1,-5.2743924E-1,-1.945218E-1,-1.3339078E-1,2.7092552E-1,-4.7537395E-1,6.8892044E-1,-1.5717986E-1,-1.5939732E-1,5.7483304E-1,-4.2061737E-1,-1.3147637E-1,1.0075938E0,-2.4047674E-1,-5.2851075E-1,-1.3705015E-1,1.9440924E-1,-1.5907733E-1,-1.8637647E-1,7.637623E-1,-3.1541085E-1,1.202475E-1,-4.3894812E-1,8.1444323E-1,-1.9089493E-1,-4.7492412E-1,5.5023063E-2,1.0186424E0,-1.2167227E-1,-1.20806836E-1,6.2432174E-2,-2.4367318E-1,-1.5887971E-1,1.0943808E-1,-1.1982014E-1,1.4983772E-1,3.1433475E-1,4.5304023E-2,-1.7462026E-1,2.0651124E-1,-8.207625E-2,-1.5305002E-1,5.947299E-2,-1.23143576E-1,2.9654E-1,3.0143425E-1,-1.4467803E-1,4.24411E-2,-1.6038634E-1,3.0851626E-1,-4.1444704E-2,-1.2217495E-1,6.506842E-2],"categories":[],"categories_nodes":[],"categories_segments":[],"categories_sizes":[],"default_left":[0,0,0,0,0,0,0,0,0,0,0,0,0,0,0,0,0,0,0,0,0,0,0,0,0,0,0,0,0,0,0,0,0,0,0,0,0,0,0,0,0,0,0,0,0,0,0,0,0,0,0,0,0,0,0,0,0,0,0,0,0,0,0],"id":24,"left_children":[1,3,5,7,9,11,13,15,17,19,21,23,25,-1,-1,27,29,31,-1,33,35,-1,37,39,41,-1,-1,-1,43,45,47,49,51,53,55,57,-1,59,-1,-1,-1,61,-1,-1,-1,-1,-1,-1,-1,-1,-1,-1,-1,-1,-1,-1,-1,-1,-1,-1,-1,-1,-1],"loss_changes":[4.0856857E2,2.6322992E2,1.0253967E1,8.090473E1,2.3638855E1,6.854553E-1,6.39776E0,1.523566E2,3.0558205E0,1.134383E1,1.0569458E1,1.466217E-1,2.2302754E0,0E0,0E0,2.8857803E0,2.1235657E1,2.1196942E0,0E0,7.103739E0,6.304579E-1,0E0,7.5145264E0,4.5828193E-1,1.455841E-1,0E0,0E0,0E0,3.8528795E0,1.901175E1,2.585143E0,3.3449888E0,7.06187E-1,6.594803E0,3.911214E0,6.4511704E-1,0E0,5.232666E0,0E0,0E0,0E0,4.8193833E-1,0E0,0E0,0E0,0E0,0E0,0E0,0E0,0E0,0E0,0E0,0E0,0E0,0E0,0E0,0E0,0E0,0E0,0E0,0E0,0E0,0E0],"parents":[2147483647,0,0,1,1,2,2,3,3,4,4,5,5,6,6,7,7,8,8,9,9,10,10,11,11,12,12,15,15,16,16,17,17,19,19,20,20,22,22,23,23,24,24,28,28,29,29,30,30,31,31,32,32,33,33,34,34,35,35,37,37,41,41],"right_children":[2,4,6,8,10,12,14,16,18,20,22,24,26,-1,-1,28,30,32,-1,34,36,-1,38,40,42,-1,-1,-1,44,46,48,50,52,54,56,58,-1,60,-1,-1,-1,62,-1,-1,-1,-1,-1,-1,-1,-1,-1,-1,-1,-1,-1,-1,-1,-1,-1,-1,-1,-1,-1],"split_conditions":[2.7613224E1,3.806995E1,7.338327E1,4.012448E2,1.4554752E1,7.186953E1,3.4379013E2,3.6156113E2,4.0993143E2,5.1747074E1,3.4684128E2,-2.1824806E0,3.375475E2,-1.3339078E-1,2.7092552E-1,3.5493457E2,1.6911135E1,7.444138E-1,-1.5939732E-1,3.955094E2,5.018722E0,-1.3147637E-1,4.174969E2,9.932763E-1,-2.098742E0,-1.3705015E-1,1.9440924E-1,-1.5907733E-1,-4.7300957E-2,7.3146814E-1,5.2132463E-1,3.9651665E-1,6.903413E0,3.459622E2,5.2436385E0,-1.1233921E0,5.5023063E-2,6.329512E1,-1.2167227E-1,-1.20806836E-1,6.2432174E-2,1.1202155E0,-1.5887971E-1,1.0943808E-1,-1.1982014E-1,1.4983772E-1,3.1433475E-1,4.5304023E-2,-1.7462026E-1,2.0651124E-1,-8.207625E-2,-1.5305002E-1,5.947299E-2,-1.23143576E-1,2.9654E-1,3.0143425E-1,-1.4467803E-1,4.24411E-2,-1.6038634E-1,3.0851626E-1,-4.1444704E-2,-1.2217495E-1,6.506842E-2],"split_indices":[19,18,23,0,20,23,0,0,0,18,0,14,0,0,0,0,19,9,0,0,23,0,0,3,10,0,0,0,10,5,10,10,20,0,2,9,0,18,0,0,0,4,0,0,0,0,0,0,0,0,0,0,0,0,0,0,0,0,0,0,0,0,0],"split_type":[0,0,0,0,0,0,0,0,0,0,0,0,0,0,0,0,0,0,0,0,0,0,0,0,0,0,0,0,0,0,0,0,0,0,0,0,0,0,0,0,0,0,0,0,0,0,0,0,0,0,0,0,0,0,0,0,0,0,0,0,0,0,0],"sum_hessian":[2.1262378E3,1.21661E3,9.096277E2,7.0576245E2,5.1084756E2,8.9692334E2,1.2704333E1,4.654813E2,2.4028114E2,5.2434334E1,4.5841324E2,8.8917163E2,7.7517247E0,5.2142444E0,7.490089E0,1.8716946E2,2.783118E2,2.5441164E1,2.1483998E2,3.6870113E1,1.556422E1,4.5938435E0,4.538194E2,4.1463494E0,8.8502527E2,6.260454E0,1.4912702E0,1.5659546E2,3.0574009E1,2.592335E2,1.9078316E1,1.3108173E1,1.2332991E1,2.8034111E1,8.836002E0,1.4476417E1,1.087804E0,4.505758E2,3.243591E0,3.120319E0,1.0260304E0,4.224551E0,8.808007E2,8.3241E0,2.224991E1,1.3570644E2,1.23527054E2,7.097447E0,1.1980868E1,5.060429E0,8.047745E0,1.1272427E1,1.0605634E0,3.3183112E0,2.47158E1,1.2515373E0,7.5844646E0,1.1572776E0,1.33191395E1,4.4692184E2,3.6539574E0,3.202801E0,1.0217502E0],"tree_param":{"num_deleted":"0","num_feature":"26","num_nodes":"63","size_leaf_vector":"1"}},{"base_weights":[8.072765E-3,-2.5725698E-1,7.160239E-1,3.919244E-2,-5.029535E-1,-1.5719172E-1,9.6926445E-1,-5.116387E-1,2.5634235E-1,-3.189483E-1,-5.2348405E-1,2.972134E-1,-1.3918157E-1,-5.259306E-1,-2.0578092E-1,7.254011E-1,-4.9793002E-1,-4.9081984E-1,5.2324057E-1,-2.2278808E-1,-1.5739976E-1,-1.5932459E-1,-2.634502E-1,-1.4181504E-1,5.68499E-1,5.516839E-1,1.0677418E0,-5.109702E-1,4.807988E-1,5.1074162E-2,-5.030844E-1,-1.3644911E-1,9.923237E-1,5.748461E-2,-1.167249E-1,-1.2567535E-1,6.780642E-2,-8.8147685E-2,3.6103213E-1,1.997409E-1,-1.4946161E-1,-1.476424E-1,3.3771396E-1,-1.5777332E-1,-6.9692165E-2,3.2321636E-2,1.8660356E-1,-5.748236E-2,-1.5457927E-1,3.2582152E-1,3.4547094E-2],"categories":[],"categories_nodes":[],"categories_segments":[],"categories_sizes":[],"default_left":[0,0,0,0,0,0,0,0,0,0,0,0,0,0,0,0,0,0,0,0,0,0,0,0,0,0,0,0,0,0,0,0,0,0,0,0,0,0,0,0,0,0,0,0,0,0,0,0,0,0,0],"id":25,"left_children":[1,3,5,7,9,-1,11,13,15,17,19,-1,-1,21,23,25,27,29,31,33,-1,-1,35,-1,37,39,41,43,45,-1,47,-1,49,-1,-1,-1,-1,-1,-1,-1,-1,-1,-1,-1,-1,-1,-1,-1,-1,-1,-1],"loss_changes":[4.0311337E2,1.13719345E2,1.8421967E2,8.486158E1,3.0578766E0,0E0,1.5403442E1,7.6877975E-1,1.8035345E2,1.3030204E1,1.5545654E-1,0E0,0E0,1.18385315E-1,2.4593978E0,1.8089645E1,2.742817E0,6.8403435E-1,7.535435E0,4.010867E-1,0E0,0E0,5.254909E-1,0E0,2.0899668E0,2.5543205E1,1.0018173E1,6.8375397E-1,9.5653534E-2,0E0,1.7712402E-1,0E0,7.5892925E-1,0E0,0E0,0E0,0E0,0E0,0E0,0E0,0E0,0E0,0E0,0E0,0E0,0E0,0E0,0E0,0E0,0E0,0E0],"parents":[2147483647,0,0,1,1,2,2,3,3,4,4,6,6,7,7,8,8,9,9,10,10,13,13,14,14,15,15,16,16,17,17,18,18,19,19,22,22,24,24,25,25,26,26,27,27,28,28,30,30,32,32],"right_children":[2,4,6,8,10,-1,12,14,16,18,20,-1,-1,22,24,26,28,30,32,34,-1,-1,36,-1,38,40,42,44,46,-1,48,-1,50,-1,-1,-1,-1,-1,-1,-1,-1,-1,-1,-1,-1,-1,-1,-1,-1,-1,-1],"split_conditions":[5.9406734E1,1.4554752E1,3.7240704E2,3.7768213E2,2.0451008E1,-1.5719172E-1,3.7369938E1,3.746343E2,4.1818335E2,4.3091373E1,-2.2915561E0,2.972134E-1,-1.3918157E-1,2.455237E0,1.5041745E0,2.4126492E1,3.9349144E1,-1.6037017E0,3.8841595E2,-2.928846E-1,-1.5739976E-1,-1.5932459E-1,1.7842196E1,-1.4181504E-1,6.8701077E-1,6.903413E0,5.069219E0,2.6787144E1,1.5804873E0,5.1074162E-2,4.765583E-1,-1.3644911E-1,6.680439E0,5.748461E-2,-1.167249E-1,-1.2567535E-1,6.780642E-2,-8.8147685E-2,3.6103213E-1,1.997409E-1,-1.4946161E-1,-1.476424E-1,3.3771396E-1,-1.5777332E-1,-6.9692165E-2,3.2321636E-2,1.8660356E-1,-5.748236E-2,-1.5457927E-1,3.2582152E-1,3.4547094E-2],"split_indices":[18,20,0,0,20,0,20,0,0,18,11,0,0,16,7,18,18,11,0,10,0,0,18,0,1,20,2,18,11,0,1,0,23,0,0,0,0,0,0,0,0,0,0,0,0,0,0,0,0,0,0],"split_type":[0,0,0,0,0,0,0,0,0,0,0,0,0,0,0,0,0,0,0,0,0,0,0,0,0,0,0,0,0,0,0,0,0,0,0,0,0,0,0,0,0,0,0,0,0,0,0,0,0,0,0],"sum_hessian":[2.1440603E3,1.5600231E3,5.8403723E2,7.073718E2,8.526512E2,9.886653E1,4.851707E2,1.9962894E2,5.077429E2,8.724548E1,7.654057E2,4.783217E2,6.849002E0,1.9002982E2,9.599121E0,3.1308392E2,1.9465898E2,7.280488E1,1.4440607E1,3.7383156E0,7.616674E2,1.8536853E2,4.661282E0,7.427827E0,2.1712945E0,2.0942494E2,1.0365899E2,1.9257117E2,2.0878031E0,1.0914948E0,7.171339E1,4.6906533E0,9.749954E0,1.02694E0,2.7113755E0,3.64704E0,1.0142423E0,1.1486006E0,1.022694E0,1.8922295E2,2.020199E1,3.4459727E0,1.0021301E2,1.8192952E2,1.0641646E1,1.0573698E0,1.0304334E0,3.3283546E0,6.838503E1,8.59337E0,1.1565833E0],"tree_param":{"num_deleted":"0","num_feature":"26","num_nodes":"51","size_leaf_vector":"1"}},{"base_weights":[1.7852865E-3,3.598819E-1,-4.7592688E-1,-3.7120547E-2,9.3179137E-1,-1.4786838E-1,-5.1128715E-1,-5.198E-1,2.1488939E-1,9.560012E-1,-1.4228429E-1,-1.5716867E-1,6.062731E-1,-4.1046435E-1,-5.2408445E-1,-5.274784E-1,-1.36839E-1,7.1325994E-1,-4.2902794E-1,-1.1739611E-1,9.644593E-1,9.7382474E-1,-1.4039621E-1,-5.023703E-1,6.855287E-2,-1.580158E-1,-3.9513856E-1,-1.594437E-1,-4.330554E-2,1.2568554E-1,-1.2796943E-1,1.728895E-3,7.891698E-1,2.941607E-2,-5.123194E-1,9.7197145E-1,-1.1323687E-1,-6.114132E-4,3.1094915E-1,-1.5765941E-1,-3.653654E-2,3.1615552E-1,-1.4486212E-1,1.9352289E-1,-1.5003964E-1,6.683248E-2,-8.451526E-2,-6.735541E-2,2.5933143E-1,2.7404916E-1,1.2780878E-1,3.5150528E-1,-3.4187526E-2,2.5858276E-2,-1.5536287E-1,2.9305875E-1,-1.0139972E-1,2.0910071E-1,-1.1990375E-1],"categories":[],"categories_nodes":[],"categories_segments":[],"categories_sizes":[],"default_left":[0,0,0,0,0,0,0,0,0,0,0,0,0,0,0,0,0,0,0,0,0,0,0,0,0,0,0,0,0,0,0,0,0,0,0,0,0,0,0,0,0,0,0,0,0,0,0,0,0,0,0,0,0,0,0,0,0,0,0],"id":26,"left_children":[1,3,5,7,9,11,13,15,17,19,-1,-1,21,23,25,27,29,31,33,-1,35,37,-1,39,41,-1,43,-1,45,-1,-1,47,49,51,53,55,-1,-1,-1,-1,57,-1,-1,-1,-1,-1,-1,-1,-1,-1,-1,-1,-1,-1,-1,-1,-1,-1,-1],"loss_changes":[3.6583066E2,2.7755338E2,1.0552963E1,8.7987625E1,1.750299E1,2.5997246E1,8.515167E-1,6.5735626E-1,1.5284395E2,5.9922485E0,0E0,0E0,1.2535305E1,4.336664E0,3.9901733E-2,4.474182E-1,1.1814042E0,1.4491348E1,7.9577026E0,0E0,5.3056335E0,1.41605E0,0E0,8.667221E-1,9.534081E0,0E0,2.3562686E0,0E0,2.5808284E-1,0E0,0E0,5.438464E0,1.0557251E1,5.5259857E0,6.3025665E-1,3.4534912E0,0E0,0E0,0E0,0E0,1.6008645E0,0E0,0E0,0E0,0E0,0E0,0E0,0E0,0E0,0E0,0E0,0E0,0E0,0E0,0E0,0E0,0E0,0E0,0E0],"parents":[2147483647,0,0,1,1,2,2,3,3,4,4,5,5,6,6,7,7,8,8,9,9,12,12,13,13,14,14,15,15,16,16,17,17,18,18,20,20,21,21,23,23,24,24,26,26,28,28,31,31,32,32,33,33,34,34,35,35,40,40],"right_children":[2,4,6,8,10,12,14,16,18,20,-1,-1,22,24,26,28,30,32,34,-1,36,38,-1,40,42,-1,44,-1,46,-1,-1,48,50,52,54,56,-1,-1,-1,-1,58,-1,-1,-1,-1,-1,-1,-1,-1,-1,-1,-1,-1,-1,-1,-1,-1,-1,-1],"split_conditions":[2.62321E1,3.8468575E1,2.7853922E1,3.968525E2,4.9972633E1,6.6838745E1,2.9708109E1,3.946676E2,4.3809653E2,3.768593E2,-1.4228429E-1,-1.5716867E-1,4.483559E1,4.6605774E1,2.6186745E0,5.9058323E0,-1.49652E0,4.0446417E2,4.4470264E2,-1.1739611E-1,4.2748833E1,5.204133E0,-1.4039621E-1,7.589184E1,4.177548E1,-1.580158E-1,3.1119236E1,-1.594437E-1,1.8640287E-1,1.2568554E-1,-1.2796943E-1,1.2647903E1,8.597916E-1,7.0630616E-1,-1.613965E0,4.4941855E2,-1.1323687E-1,-6.114132E-4,3.1094915E-1,-1.5765941E-1,4.2600378E2,3.1615552E-1,-1.4486212E-1,1.9352289E-1,-1.5003964E-1,6.683248E-2,-8.451526E-2,-6.735541E-2,2.5933143E-1,2.7404916E-1,1.2780878E-1,3.5150528E-1,-3.4187526E-2,2.5858276E-2,-1.5536287E-1,2.9305875E-1,-1.0139972E-1,2.0910071E-1,-1.1990375E-1],"split_indices":[18,19,18,0,22,19,18,0,0,0,0,0,20,23,5,2,24,0,0,0,20,23,0,19,20,0,18,0,17,0,0,19,6,1,15,0,0,0,0,0,0,0,0,0,0,0,0,0,0,0,0,0,0,0,0,0,0,0,0],"split_type":[0,0,0,0,0,0,0,0,0,0,0,0,0,0,0,0,0,0,0,0,0,0,0,0,0,0,0,0,0,0,0,0,0,0,0,0,0,0,0,0,0,0,0,0,0,0,0,0,0,0,0,0,0,0,0,0,0,0,0],"sum_hessian":[2.13652E3,1.2212834E3,9.152366E2,7.2142615E2,4.9985733E2,8.955586E1,8.256807E2,2.4709593E2,4.743302E2,4.9171112E2,8.146218E0,5.9962765E1,2.9593098E1,9.672333E1,7.289574E2,2.4186906E2,5.2268744E0,2.6732324E2,2.0700696E2,2.7851667E0,4.8892593E2,2.2118784E1,7.4743133E0,8.1112114E1,1.5611214E1,7.11337E2,1.7620417E1,2.3979004E2,2.0790231E0,1.6382102E0,3.588664E0,2.5868734E1,2.414545E2,3.1926622E1,1.7508034E2,4.864783E2,2.4476514E0,1.3931843E0,2.07256E1,7.7148186E1,3.963928E0,5.274861E0,1.0336352E1,1.1438512E0,1.6476564E1,1.0134959E0,1.0655271E0,2.1080177E1,4.7885585E0,1.7874313E2,6.2711357E1,2.7606063E0,2.9166016E1,1.4770765E0,1.7360326E2,4.8492203E2,1.556257E0,1.0081426E0,2.9557853E0],"tree_param":{"num_deleted":"0","num_feature":"26","num_nodes":"59","size_leaf_vector":"1"}},{"base_weights":[1.5684996E-2,-5.0790405E-1,4.6549666E-1,-5.172684E-1,7.925914E-1,7.186674E-1,-3.5266382E-1,-1.5865548E-1,-2.4748151E-1,3.4613308E-2,2.6417273E-1,4.5435545E-1,9.850833E-1,-4.5982757E-1,9.844651E-1,-3.8346753E-1,3.852603E-1,6.757548E-1,-4.080169E-1,9.913699E-1,-1.6609468E-1,-2.6824284E-1,-5.133854E-1,3.033448E-1,1.04111455E-1,-1.3152962E-2,-1.5457417E-1,1.1385968E0,-2.4670783E-1,9.076393E-1,4.0807828E-1,2.3216337E-1,-5.129451E-1,6.1966294E-1,3.0013373E-1,-1.11126564E-1,3.846718E-2,-4.00147E-1,3.5205325E-1,-2.7717432E-1,-5.229858E-1,2.1910022E-1,-1.051656E-1,3.7253726E-2,4.7790065E-1,-1.224515E-1,6.079651E-2,1.993939E-3,3.0029458E-1,2.7123326E-1,7.39424E-2,-9.448903E-2,3.7875125E-1,3.6654975E-2,-1.5750411E-1,2.925318E-1,-4.1836154E-2,1.640119E-1,-1.3748813E-1,4.0129337E-1,-1.3699743E-1,1.5682845E-1,-1.4125498E-1,-4.871181E-2,-1.5847027E-1],"categories":[],"categories_nodes":[],"categories_segments":[],"categories_sizes":[],"default_left":[0,0,0,0,0,0,0,0,0,0,0,0,0,0,0,0,0,0,0,0,0,0,0,0,0,0,0,0,0,0,0,0,0,0,0,0,0,0,0,0,0,0,0,0,0,0,0,0,0,0,0,0,0,0,0,0,0,0,0,0,0,0,0,0,0],"id":27,"left_children":[1,3,5,7,9,11,13,-1,15,-1,-1,17,19,21,23,25,27,29,31,33,35,37,39,-1,-1,41,-1,43,45,47,49,51,53,55,-1,-1,-1,57,59,61,63,-1,-1,-1,-1,-1,-1,-1,-1,-1,-1,-1,-1,-1,-1,-1,-1,-1,-1,-1,-1,-1,-1,-1,-1],"loss_changes":[5.0678E2,1.2519592E1,2.3999445E2,2.9561157E0,3.4550428E-1,6.1817383E1,3.9741146E1,0E0,3.8086078E0,0E0,0E0,8.537745E1,3.3453674E0,2.4739113E0,5.4359436E-4,1.7266612E0,4.1015778E0,2.1667374E1,6.2774363E0,8.551636E-1,2.4255967E-1,4.861982E0,3.036461E-1,0E0,0E0,2.8521159E0,0E0,1.5718603E0,4.589972E-1,1.5924194E1,1.31336155E1,8.063709E0,6.7030334E-1,3.6570191E0,0E0,0E0,0E0,2.8960733E0,9.099809E0,1.7727556E0,2.7187347E-1,0E0,0E0,0E0,0E0,0E0,0E0,0E0,0E0,0E0,0E0,0E0,0E0,0E0,0E0,0E0,0E0,0E0,0E0,0E0,0E0,0E0,0E0,0E0,0E0],"parents":[2147483647,0,0,1,1,2,2,3,3,4,4,5,5,6,6,8,8,11,11,12,12,13,13,14,14,15,15,16,16,17,17,18,18,19,19,20,20,21,21,22,22,25,25,27,27,28,28,29,29,30,30,31,31,32,32,33,33,37,37,38,38,39,39,40,40],"right_children":[2,4,6,8,10,12,14,-1,16,-1,-1,18,20,22,24,26,28,30,32,34,36,38,40,-1,-1,42,-1,44,46,48,50,52,54,56,-1,-1,-1,58,60,62,64,-1,-1,-1,-1,-1,-1,-1,-1,-1,-1,-1,-1,-1,-1,-1,-1,-1,-1,-1,-1,-1,-1,-1,-1],